-0.12917425	-0.016382258	-0.07952873	-0.07990478	0.03703656	0.12571938	-0.11314357	-0.019636981	0.041573465	-0.39228833	0.0153358895	0.0022792737	-0.10003431	-0.0035013864	-0.06715683	0.080056444
-0.1062236	0.26529536	0.024413195	-0.15487836	0.57180035	0.22447419	-0.09786356	-0.017085064	0.19074333	-0.5098792	-0.060524423	0.17855576	0.02881795	0.2296774	-0.22750604	0.33383578
0.045089357	0.31705853	0.14777045	-0.24559033	0.06663509	0.22555993	-0.20233096	0.15212053	0.098840564	-0.18453756	-0.13855591	-0.13087328	0.1650651	-0.0048345895	-0.268678	-0.072788924
-0.18724851	-0.056799997	-0.1538878	0.08248055	0.0030834037	0.027039183	-0.08467845	-0.1092707	0.091473505	-0.06599885	0.10964953	0.066881396	-0.10092094	-0.025129369	0.0022298978	0.06300604
-0.14282218	0.1810083	-0.04179651	-0.15011175	-0.20314622	0.3580757	-0.018499598	0.08460202	0.32513732	0.4251232	0.09568773	0.11775995	-0.017305862	0.061921198	-0.25112265	0.024376573
0.3297673	0.18641219	0.42039448	-0.2960323	-0.30398473	-0.13308409	-0.42147604	0.22892757	-0.42101562	-0.50637233	-0.50850725	-0.466007	0.35672274	-0.40920976	0.0049273893	-0.35401505
0.10522929	0.17089565	0.04960827	-0.20611306	0.08196619	0.19034243	0.044137932	0.1552169	0.18215534	-0.32668236	-0.042803384	0.100167684	0.029495092	0.1512607	-0.24272369	0.14822723
0.001337833	-0.37961277	-0.19095165	0.0805333	-0.6704435	-0.13486886	0.09999009	0.03401304	-0.20796491	0.044849597	0.047880825	-0.18324251	-0.16185212	-0.28554887	0.16756022	-0.26820326
-0.009153737	-0.20909537	-0.06342339	0.07835908	-0.18425655	-0.16779765	-0.09356929	-0.055024434	-0.19793305	-0.33932847	-0.018078273	-0.17237036	-0.109674916	-0.08169581	0.18806084	-0.039355595
0.13943522	-0.39332542	-0.06255334	0.13343948	0.38231486	-0.35667393	-0.09639266	-0.2534438	-0.30627766	-0.7999028	-0.10230774	-0.08747902	-0.17826067	0.017727265	0.3316936	0.20036763
0.13912338	-0.051911313	0.060965993	-0.06631686	0.1982408	-0.05517243	-0.07281276	-0.01094345	-0.045190986	-0.5733601	-0.1442625	-0.03798477	0.025601089	0.07158393	-0.044483256	0.14222963
0.0669993	-0.064220704	-0.069814004	-0.14294375	-0.14756425	0.105524205	0.06697136	0.12169403	0.11282608	-0.22064564	0.02648326	0.032641202	-0.012484676	0.08343654	-0.1512005	-0.017095076
-0.41650954	-0.3690335	-0.48012295	0.27608037	-0.5922418	-0.0032992857	0.26938304	-0.23672025	-0.021289371	0.63564134	0.45169967	0.09150388	-0.3999084	-0.2731295	0.19984992	-0.13605691
-0.2526998	-0.001559028	-0.24286668	0.11811076	0.43785298	0.019717189	0.0030070753	-0.20192313	0.06377938	-0.32788032	0.15135168	0.17469463	-0.27761102	0.12806812	-0.05495019	0.21528746
-0.4155572	0.44245464	-0.23231727	0.084467344	0.37702087	0.4502045	0.14272705	-0.1865736	0.42195067	0.45945784	0.28073663	0.339996	-0.22133785	0.2716899	-0.36828148	0.252142
-0.20580028	0.083047904	-0.19453833	0.036376327	0.09195659	0.2655599	0.13761596	-0.09500492	0.24065253	0.06691748	0.18691333	0.19801508	-0.22967581	0.15979314	-0.17683008	0.090064466
0.14391394	0.30346265	0.41800112	-0.13629957	-0.13087235	-0.13188672	-0.60284245	0.1519899	-0.53095603	-0.16316879	-0.48769194	-0.51257354	0.29929793	-0.6122128	0.070568234	-0.46239036
-0.43011922	-0.18091393	-0.37622854	0.36203024	0.4529639	-0.08897694	-0.012318354	-0.43896264	0.015283625	-0.08275931	0.25512478	0.19966015	-0.3225287	-0.066342674	0.21589784	0.2598571
-0.064111486	0.29024675	0.085240915	-0.09616621	0.18729985	0.2220255	-0.12056192	0.0018942025	0.094751626	0.035661373	-0.07386478	0.002012652	0.076251924	0.055390213	-0.2066314	0.032309934
0.007583529	0.00056292524	-0.012717958	-0.12753081	-0.119000584	0.09081428	-0.044692103	0.105482854	0.023654355	-0.07484528	-0.04426434	-0.019076709	0.037813127	-0.048785653	-0.12549101	-0.022731354
-0.23165385	0.08128415	-0.090787135	0.1283341	0.23160164	0.051093735	-0.17667116	-0.18051107	0.05357268	0.09987512	-0.0068815937	-0.01805365	-0.09372248	-0.062339786	-0.023295427	0.050689537
0.51690507	0.11029524	0.26935014	-0.38724956	-0.56151015	0.17649305	-0.13450375	0.38488898	-0.067789085	-0.2812091	-0.38413003	-0.27868035	0.3338551	-0.054039232	-0.23285025	-0.22838487
0.06932008	0.040733766	0.06777977	-0.03766142	0.1802783	-0.060894873	-0.054399453	0.010418508	-0.099662	-0.56923676	-0.17998078	-0.037848722	0.0065312493	0.082019486	0.016888736	0.09049937
0.22647727	-0.011009338	-0.12851748	-0.2085937	-0.11634762	0.09153396	0.045701925	0.14730708	0.04659992	-0.5007581	0.05801597	-0.00047713006	0.030409733	0.08630684	-0.1226382	0.07827583
0.169946	0.11805504	0.010456722	-0.21043238	-0.18135594	0.29129046	0.10994359	0.18206494	0.3071175	-0.04153549	0.061115757	0.105527945	0.061831232	0.2379228	-0.31848773	0.15475953
-0.22311544	0.17004791	-0.14280616	0.014961924	0.24393071	0.22149843	0.017633824	-0.08165984	0.17701632	0.33722523	0.12962009	0.12141716	-0.068691574	0.0733393	-0.22382225	0.07577497
-0.031480838	-0.122717656	0.07299709	-0.023023466	-0.39120206	-0.1606482	-0.23674996	0.019379027	-0.23376353	-0.018949986	-0.17777678	-0.36791357	0.018180754	-0.44615296	0.07816461	-0.3811594
-0.22006997	0.10341336	-0.07134338	-0.11761202	-0.28562576	0.17282914	-0.06906567	0.09799788	0.13517201	0.3027657	-0.0062754727	0.013774166	0.022740087	0.011694696	-0.15988894	-0.1283459
0.68798363	0.049273007	-0.15941463	-0.60805315	-0.29083273	0.42029062	0.5573	0.5840596	0.5392556	-0.7624539	0.33893898	0.5674915	0.3047167	0.6472875	-0.4849722	0.57370716
-0.008365571	0.31191453	-0.08092973	-0.13445526	0.21706305	0.35007867	0.031497646	0.09533469	0.28755954	0.09526795	0.11070658	0.18539011	-0.029999634	0.23246434	-0.32928607	0.21306126
-0.0062436005	-0.22845985	-0.06152676	0.032452352	-0.2261299	-0.120495394	-0.004549013	-0.035305195	-0.16944687	-0.13482623	0.024854211	-0.15549125	-0.05740202	-0.13524975	0.11307808	-0.11145497
0.65380627	-0.13257295	-0.3287831	-0.42332608	-0.41292167	0.28074178	0.5277982	0.49472007	0.24362113	-0.8080102	0.4141731	0.34109792	-0.0424889	0.4526421	-0.2764369	0.42789024
-0.58093977	-0.44014686	-0.59771353	0.58800524	-0.107798845	-0.20406882	0.268131	-0.5845809	-0.00022689048	0.2566578	0.5594529	0.112022184	-0.63474673	-0.13721935	0.2852067	0.0368491
0.16747929	-0.13342169	0.032537278	-0.088406816	-0.44272506	-0.053890795	-0.10119881	0.12534627	-0.12818234	-0.20729913	-0.13057995	-0.1907437	0.039543163	-0.15738252	0.027924469	-0.16910613
0.031190693	-0.13746047	-0.23268859	-0.05018764	-0.19984926	0.04823765	0.2341248	0.05783004	0.13233975	-0.025051568	0.2086679	0.10982302	-0.107912846	0.07810523	-0.03302321	0.122653626
0.18296325	-0.021603394	0.15488145	0.009139143	0.10869544	-0.2095134	-0.2554644	0.05054741	-0.19176085	-0.5277284	-0.28748032	-0.23916501	0.12199291	-0.17029175	0.06378064	-0.049617536
0.44403112	0.5411975	0.56082463	-0.43099436	-0.5644952	0.4783015	-0.57782406	0.5228462	-0.25194257	0.65078014	-0.5377364	-0.600456	0.4809404	-0.6734267	-0.52247894	-0.5594896
-0.22515357	-0.05543013	-0.12245382	0.13542654	0.096645966	0.005048223	-0.047987025	-0.10302371	0.022076184	0.019005567	0.05358724	-0.008870853	-0.11581295	-0.094818726	0.06736201	0.018376917
0.22198871	0.024246361	-0.10629016	-0.24038438	-0.2538536	0.26980796	0.25299692	0.22881013	0.27961314	-0.0018651432	0.12995179	0.15483284	0.039405376	0.21882172	-0.28723916	0.13605666
-0.5280137	0.11961148	-0.26773864	0.35835853	0.35197312	0.16121376	0.018459827	-0.42329103	0.22102425	0.32391158	0.31420988	0.2447022	-0.29859203	0.06823747	-0.07194027	0.17735007
-0.3415052	-0.037719555	-0.27391154	0.16792116	0.002428278	0.09841026	-0.028743254	-0.20921518	0.03698475	0.21336907	0.19602211	0.046608247	-0.2218921	-0.0148181915	0.051962186	0.05831773
0.10674364	0.122279525	0.02176248	-0.17247753	0.036338072	0.2277653	0.03554337	0.15319796	0.2087305	-0.13733569	0.03562097	0.0395334	0.071300805	0.12465138	-0.27926543	0.117446
-0.46954325	0.23636752	-0.3183863	0.16994762	0.44305068	0.29782307	0.061906062	-0.23745573	0.26354346	0.33196327	0.2788418	0.30785596	-0.30002043	0.1327646	-0.22286089	0.28682694
-0.2897013	0.067803964	-0.21043809	0.23796396	0.40617448	-0.015700936	-0.08581536	-0.30555993	-0.017907333	-0.14235239	0.13201511	0.059937023	-0.19398361	-0.0541477	0.00020000146	0.18320252
-0.23429506	-0.09685687	-0.3190139	0.10665074	0.22511318	0.10087822	0.1545114	-0.20342578	0.17215583	-0.05250345	0.23666734	0.26375827	-0.30905277	0.20072879	-0.085917965	0.24039882
-0.4027787	-0.38543773	-0.34273258	0.39935976	-0.3514605	-0.21369356	0.06964568	-0.32646686	-0.15685746	0.24263452	0.23726533	-0.04057409	-0.3628905	-0.3317479	0.30005696	-0.09141045
-0.3190861	0.050853655	-0.22611566	0.113502644	0.14255735	0.12599418	0.06730883	-0.17414302	0.17890057	0.18766744	0.18014681	0.20619452	-0.2446291	0.055195678	-0.12970138	0.13911645
-0.20070776	-0.1391775	0.19155137	0.3096092	0.42818776	-0.39974993	-0.56585884	-0.2737079	-0.40069628	-0.65881723	-0.5316738	-0.4504709	-0.02198638	-0.4370707	0.32962292	-0.30996668
-0.19899085	-0.26755023	0.1942201	0.2903113	0.48651916	-0.4343534	-0.3536466	-0.37830037	-0.35910752	-0.674428	-0.4103829	-0.3251546	-0.12194154	-0.22409777	0.35280526	-0.08548828
-0.06473546	-0.041433778	0.25007933	0.14123856	0.39626342	-0.41633317	-0.44987595	-0.17233066	-0.41070253	-0.50883204	-0.3582867	-0.3222955	0.14961971	-0.3584992	0.24737756	-0.20948616
-0.017448137	0.16354747	0.1395218	-0.19398537	-0.38542297	0.15438436	-0.24407555	0.13770457	-0.06210674	0.49063656	-0.166264	-0.263121	0.15707709	-0.40930828	-0.09849056	-0.42315575
0.07797563	0.13903554	-0.050715774	-0.15450524	-0.24519666	0.20419376	0.07004022	0.1753422	0.2177796	0.14501286	0.02058014	0.05303491	0.09586009	0.023501087	-0.23982586	-0.03098609
-0.3794161	-0.025646208	-0.2968526	0.35016137	0.32994294	0.104101785	0.17196016	-0.4066603	0.165466	0.2065829	0.2907017	0.20251365	-0.28157917	0.1194513	-0.09005939	0.20031613
-0.30575088	0.08552985	-0.3750799	0.15389524	0.29815122	0.3139126	0.36596504	-0.19862126	0.4532168	0.26751196	0.4223908	0.44649532	-0.36188662	0.34379083	-0.23581396	0.47467196
0.4557973	0.48323664	0.43048534	-0.4328057	-0.63467836	0.56257015	-0.47759888	0.4736662	-0.111939736	0.70643896	-0.45887688	-0.51809794	0.46685648	-0.5185084	-0.52956945	-0.5706491
-0.32563552	0.00018627172	-0.08027374	0.23448426	0.2938679	-0.03025453	-0.20012042	-0.2582888	-0.05392194	-0.02046527	0.0038560121	-0.06674032	-0.1661989	-0.16976358	0.068993956	-0.018790834
0.017220717	0.12826379	0.21404174	-0.08670656	-0.13733643	-0.039320294	-0.24172144	0.06885361	-0.08423489	-0.04071062	-0.3186397	-0.29036343	0.16227686	-0.17285326	-0.004234512	-0.19047165
0.060377207	-0.31739956	-0.09374368	0.13417679	0.48305982	-0.26034507	-0.08015088	-0.212716	-0.171069	-0.7116109	-0.037528656	-0.051913176	-0.17779915	-0.006192596	0.19862519	0.28161684
0.43659073	0.49518728	0.44350874	-0.47363958	-0.46569583	0.43283334	-0.54335517	0.43412068	-0.24582276	0.42979178	-0.53957736	-0.4709721	0.49766356	-0.6005541	-0.41862783	-0.5267545
-0.15423653	0.0039413185	0.10915235	0.1376217	0.14727326	-0.1432664	-0.2916547	-0.14963287	-0.15833431	-0.1073857	-0.14126116	-0.20330407	-0.020977976	-0.26993173	0.106104866	-0.14934851
-0.53202266	0.55139583	-0.3768316	0.30880305	0.5457202	0.55994064	0.3238623	-0.34607938	0.50131655	0.5020888	0.44077197	0.47190523	-0.36937156	0.36755323	-0.41866893	0.42658642
0.79776776	-0.13835606	-0.086325064	-0.66047394	-0.42848387	0.36763555	0.581759	0.5981127	0.3989343	-0.9401664	0.09419675	0.33502868	0.20070069	0.56516266	-0.4174265	0.48393282
-0.59625536	-0.40765998	-0.5462145	0.6049504	-0.16138421	-0.4023227	0.17287865	-0.5369533	-0.27810994	0.22033066	0.41669703	-0.003445236	-0.47708794	-0.3183888	0.4569924	-0.09384524
-0.1521156	0.19963183	-0.29083323	-0.12182301	0.3418716	0.2853279	0.26316422	0.021299385	0.37249696	-0.026271159	0.3530059	0.37317744	-0.25467965	0.31965682	-0.24083889	0.3525967
-0.3863806	0.46958098	-0.11171146	0.048180856	0.16815045	0.46871322	-0.012220902	-0.06979134	0.30273297	0.6302465	0.12535407	0.13049124	-0.0993028	0.04363998	-0.34641045	0.028726062
-0.34518707	0.58128744	-0.106148675	0.06164791	0.25507864	0.5545657	-0.15261362	-0.12530725	0.33913577	0.653567	0.13901566	0.077555805	-0.062308475	0.040787704	-0.5026348	0.0029071413
-0.25851655	-0.09851837	-0.2280244	0.17423615	0.035683654	0.03286501	0.13299692	-0.2110706	0.0769224	0.083919734	0.16616786	0.102772325	-0.16300878	-0.0058427663	0.02554463	0.08244282
-0.5888027	-0.35076582	0.22178812	0.6272146	0.6891253	-0.65870804	-0.5699127	-0.6871807	-0.6043316	-0.6601313	-0.48341674	-0.5626464	-0.1493991	-0.59632385	0.51741946	-0.44741333
0.37684524	-0.22956817	-0.14038354	-0.18792242	-0.33019012	-0.03589915	0.26532623	0.25267947	-0.04169384	-0.6396187	-0.0054209847	-0.039629966	-0.048689574	0.19571094	0.020688241	0.1503381
-0.081605986	0.087332875	0.12472996	0.07210457	0.14990403	-0.043838806	-0.36947006	-0.10900116	-0.1562139	-0.2626264	-0.20995298	-0.25409028	0.036899574	-0.3012601	0.08769825	-0.18967757
-0.058690187	0.28665707	0.29989237	-0.13867472	-0.14199139	0.10930544	-0.38388267	0.11052568	-0.15169123	0.29792112	-0.34957293	-0.34718248	0.25263774	-0.41385508	-0.13051201	-0.30976078
-0.175011	0.061836656	-0.30345246	0.04024322	0.15413629	0.3648042	0.2856563	-0.08610888	0.35052443	0.21266307	0.3750724	0.29231003	-0.34182343	0.26020253	-0.24873601	0.33028823
-0.26983255	-0.05924956	-0.054269094	0.20018968	0.1744897	-0.15100332	-0.18442884	-0.1688149	-0.10192348	-0.099626176	-0.0002552862	-0.0398885	-0.079186104	-0.12495176	0.15046291	-0.037424654
0.059263304	-0.21470518	-0.19881418	0.021732287	-0.20434955	0.021107614	0.10741227	0.048555378	0.063067384	-0.13249296	0.20092958	0.10361011	-0.18567158	0.09296523	-0.017550975	0.06770203
0.35537148	0.34263334	0.29914916	-0.42912	-0.24599211	0.35596037	-0.24039885	0.34409457	0.022316948	-0.14212696	-0.29150182	-0.22608154	0.26106754	-0.034236375	-0.30065027	-0.18902487
-0.30292767	-0.039279927	-0.101522006	0.24839374	0.32705596	-0.10683921	-0.10678399	-0.3476702	-0.05968144	-0.10004059	0.063977346	0.037974473	-0.20788619	-0.100433856	0.09623753	0.14915381
0.12020702	-0.16905695	0.0067874584	0.027839344	-0.3003822	-0.23198102	-0.189801	0.07886334	-0.23002066	-0.3254374	-0.23430215	-0.2557004	0.070434414	-0.28357956	0.1350296	-0.19303288
-0.052150104	-0.27058223	-0.23405473	0.11432447	-0.79205793	-0.17486607	0.046852667	0.00857208	-0.16614474	0.3219724	0.002811913	-0.3023366	-0.14108673	-0.3793028	0.16901322	-0.42409685
0.34420323	0.5292396	0.35195228	-0.43825898	-0.4354444	0.57808065	-0.31658167	0.410196	0.26210383	0.4340049	-0.32833257	-0.2796313	0.39484024	-0.15743515	-0.5272975	-0.2960279
-0.23445728	0.16536532	-0.21985742	0.060916916	0.2843737	0.406956	0.2654524	-0.07665752	0.39338875	0.34578288	0.24503765	0.36011037	-0.17179357	0.33561692	-0.28602713	0.2740022
-0.28439707	0.25113797	-0.4399612	0.033508617	0.51326746	0.42915246	0.41070122	-0.15644991	0.5109428	0.18299675	0.49228913	0.5220919	-0.3885124	0.5455415	-0.37942272	0.5200514
0.3265216	0.56664425	0.46478796	-0.34735787	-0.23254023	0.23848756	-0.5118094	0.3392223	-0.3025638	0.1258619	-0.55582005	-0.45021075	0.47667015	-0.5104114	-0.2810969	-0.41936484
-0.2348528	0.2425584	0.45123836	0.18879786	0.753772	-0.22132076	-0.63232905	-0.2815818	-0.2600716	-0.44444063	-0.51201683	-0.35120612	0.2369335	-0.2531173	0.19326645	-0.1570383
-0.27267662	0.2027887	-0.087486215	0.089532174	0.3850982	0.18919887	-0.017543614	-0.20280936	0.24504922	0.21857372	0.12634815	0.1499562	-0.08843432	0.08695221	-0.14136863	0.1782129
-0.044580862	-0.15525088	0.09182396	0.25005278	-0.07373319	-0.38375026	-0.3212054	-0.2501697	-0.41025236	-0.44205195	-0.21719757	-0.32336807	0.058865182	-0.39624554	0.29845142	-0.31526536
-0.27671656	-0.008508285	0.028466498	0.10672718	0.24384922	-0.18086225	-0.33913755	-0.1892305	-0.19553627	-0.15806207	-0.18449494	-0.14039364	-0.042552024	-0.35230473	0.13677205	-0.11690431
-0.4949275	-0.72211665	-0.7849664	0.5475313	-0.8395533	-0.424878	0.5245437	-0.4989098	-0.40424687	-0.03434109	0.69009686	-0.050270285	-0.69996786	-0.3729898	0.52190244	-0.20120111
0.107058965	0.4299389	0.10629153	-0.32726854	-0.22143038	0.5935932	0.10865883	0.29874417	0.50450385	0.30195487	-0.010524212	0.0515815	0.13651086	0.22286409	-0.53375006	-0.06866477
-0.42547598	-0.14225146	-0.2597114	0.2550698	0.19801395	-0.1384254	0.089996316	-0.28087258	0.050358005	0.12570938	0.25975132	0.22136553	-0.28304777	0.014290979	0.14171238	0.14002179
0.1338633	0.039392546	0.32671106	-0.00025108038	0.22332756	-0.2793819	-0.43310267	-0.011249004	-0.441443	-0.5974171	-0.40970698	-0.45030978	0.23785771	-0.36424866	0.25414407	-0.19701199
-0.07547835	-0.29368615	-0.29280087	0.14254956	-0.3767276	-0.16358857	0.043313816	-0.041225616	-0.123307355	0.051200606	0.12899157	-0.07854433	-0.16184896	-0.14806096	0.23353235	-0.14886777
-0.61403936	-0.36374536	-0.6191077	0.5206103	0.08568935	-0.08661312	0.44434902	-0.6192252	0.108316556	0.47420025	0.6042544	0.27866817	-0.63018847	0.026156742	0.1861109	0.20987685
-0.32878372	-0.16240685	-0.27061874	0.24918881	-0.017099036	-0.08485214	0.040159907	-0.26093802	-0.014781077	0.17572121	0.16558586	0.010306081	-0.25847062	-0.19586256	0.17455386	-0.06203358
0.5409068	-0.31648678	-0.2914343	-0.31320357	-0.51387346	0.0959252	0.6101863	0.39428315	0.194458	-0.7814545	0.3306319	0.3526579	-0.095884	0.44359365	-0.109777056	0.44967833
0.09565875	0.18739454	0.23179649	-0.12798235	-0.08983513	0.05854181	-0.24497515	0.15369488	-0.027567945	-0.22696157	-0.19917409	-0.21290311	0.17751804	-0.098730825	-0.024345076	-0.14624128
0.2555575	0.31795633	0.33395112	-0.29990083	-0.19440034	0.30105388	-0.26591173	0.286053	0.10100531	0.043182686	-0.27034423	-0.2004758	0.30306444	-0.045641717	-0.36106697	-0.22547434
-0.23503612	-0.003985689	-0.25470334	0.07073178	0.18311536	0.21988527	0.17303698	-0.111494265	0.2477649	0.13042076	0.30871946	0.26966068	-0.18070455	0.23337512	-0.10504415	0.30014488
-0.22079264	-0.15189017	-0.29837415	0.14671291	0.34225836	0.050463133	0.14857979	-0.20365831	0.06557436	-0.16631426	0.2555921	0.29383877	-0.22669911	0.17881581	0.0023697626	0.34813803
0.0048321364	-0.012589494	0.036762163	-0.13103108	-0.3000002	0.05371548	-0.08289839	0.11702748	-0.049635477	-0.01268452	-0.10604992	-0.19263926	0.09990766	-0.14116001	-0.04025051	-0.18960705
0.4175995	0.55446404	0.5453372	-0.49813935	-0.24989417	0.282832	-0.6632939	0.43092918	-0.18151651	0.025491757	-0.67431873	-0.56206656	0.53428835	-0.5471549	-0.33649963	-0.5416499
-0.22421181	0.6080009	-0.12887819	-0.072991736	0.313172	0.5934382	0.22909541	-0.07059154	0.4420812	0.4255148	0.23573619	0.23432119	-0.092667036	0.33017337	-0.59583193	0.2645694
-0.26664212	0.063161865	0.051929317	0.14726654	0.17138496	-0.046162188	-0.20776229	-0.19096395	-0.14030293	-0.067656994	-0.09034063	-0.097436376	-0.08105345	-0.19443655	0.109586276	-0.06795752
-0.17061327	-0.05287035	-0.09906401	0.09889665	0.22431177	0.026719658	-0.05352258	-0.16779006	0.010233459	-0.17914647	-0.0036450578	0.034644622	-0.13380587	-0.04535976	0.034624368	0.10458331
-0.15449832	-0.032300156	-0.15464345	0.04295091	0.007400582	0.123950385	0.08478353	-0.124019355	0.2020543	0.10200242	0.15833798	0.10543805	-0.11453336	0.07651268	-0.08768279	0.12545085
-0.34532008	-0.12809475	0.25248483	0.35830125	0.57882184	-0.43823695	-0.43589026	-0.45787212	-0.39918903	-0.5018777	-0.39173853	-0.3237589	-0.099003814	-0.3305222	0.3803072	-0.11698008
0.24486428	0.065576315	0.27150166	-0.056333326	0.48069343	0.016951466	-0.055228706	0.0459688	0.006275726	-0.72518826	-0.2424335	0.010069853	0.17075896	0.10249149	-0.055802934	0.16283034
-0.5622808	-0.6592651	-0.6665965	0.5271146	-0.5800435	-0.46515214	0.4295057	-0.52501476	-0.3001214	-0.07934901	0.65150595	0.14255181	-0.61307544	-0.26575083	0.5494405	0.06153115
-0.09792644	0.47235817	-0.029572107	-0.14013655	0.20956649	0.45374754	-0.000268189	0.08284207	0.29591912	0.28649434	0.03483619	0.18523103	0.08846297	0.20373622	-0.4083311	0.12207254
-0.4913184	0.0030779515	0.58385915	0.42134812	0.76818806	-0.5031326	-0.70438284	-0.48770493	-0.5488876	-0.5248146	-0.74457633	-0.556346	0.2301482	-0.5830575	0.46051612	-0.4539717
-0.03587878	-0.34619886	-0.30684662	0.0716024	-0.72722644	-0.17236815	0.23361698	-0.059919935	-0.14370984	0.011159802	0.17490739	-0.0829709	-0.19333538	-0.077067696	0.20574382	-0.07030841
-0.31744087	0.37577757	-0.14544922	0.10474907	0.25145337	0.3895029	0.07720183	-0.13059497	0.31561908	0.37447628	0.13849716	0.22953343	-0.109010465	0.19048157	-0.35919097	0.18086925
-0.15065198	-0.17285065	-0.03631446	0.17101055	-0.091525085	-0.20758761	-0.23755205	-0.11497447	-0.3281561	-0.13113058	-0.052855324	-0.20256679	-0.10109568	-0.44752002	0.19779134	-0.27144954
0.19469687	-0.0038261837	0.085888974	-0.12110751	0.04841059	0.032946736	-0.014064868	0.122487485	-0.017981363	-0.52550125	-0.10064416	0.0141355	0.056824043	0.20576882	-0.076990396	0.120506935
-0.37703755	0.431681	0.10110209	0.21225384	0.63761395	0.08111372	-0.24255566	-0.3247273	0.029226214	0.15152064	-0.03275732	0.03754961	-0.005570839	-0.02710952	0.013717148	0.05538693
-0.27776638	0.09178436	0.22171955	0.3489809	0.6958858	-0.35999385	-0.43531954	-0.36941865	-0.37377232	-0.5105908	-0.31980014	-0.18449003	0.0270873	-0.24054892	0.34617624	-0.081810534
0.14675239	0.63674223	0.23345478	-0.3783205	-0.52178895	0.7875094	-0.1384989	0.4584224	0.55775064	0.57756764	-0.14361839	-0.10471882	0.27242988	-0.028312238	-0.7147698	-0.35539612
-0.28793916	0.35230297	-0.16208956	0.09790648	0.3985685	0.33845857	0.022915643	-0.20885544	0.3475319	0.37524733	0.17490965	0.2185918	-0.16044255	0.18907745	-0.32965085	0.22814445
0.017924234	-0.011851502	0.0031891947	0.013214461	0.27769396	-0.13302492	-0.07062886	-0.11943637	0.011544872	-0.33573595	-0.016464215	0.020806048	-0.07180276	0.04434359	0.04505023	0.13409586
-0.22751558	-0.35999063	-0.17728919	0.26166594	-0.41742566	-0.3612753	-0.13905852	-0.24883382	-0.35618258	-0.100930765	0.00631246	-0.27347538	-0.18961033	-0.42641386	0.31295395	-0.2445879
0.27558896	-0.19201063	-0.20133984	-0.20221105	-0.00086679525	0.04669399	0.33103105	0.2078788	0.10976858	-0.5458225	0.13694113	0.23990062	-0.08313598	0.2825782	-0.09044365	0.37026116
-0.062076047	0.39813277	0.40929386	0.002559777	0.5235441	0.026719797	-0.41208643	-0.08364696	-0.094595805	-0.18078867	-0.3061972	-0.16769826	0.2356288	-0.15444851	-0.028966082	-0.12933809
-0.41064367	-0.009877272	0.04903199	0.3264386	0.09554795	-0.1293607	-0.37677062	-0.30935842	-0.18033326	0.17688671	-0.10282171	-0.1693055	-0.0686576	-0.40944037	0.24224795	-0.19074865
-0.18423262	-0.45682728	-0.34279722	0.3131192	-0.4853433	-0.26012695	0.017949196	-0.26000676	-0.2658286	-0.19564116	0.15485266	-0.21558692	-0.32114118	-0.35575157	0.32513848	-0.27256706
-0.109108016	0.2682014	0.16903059	-0.096454486	-0.09442428	0.2886144	-0.23458186	0.12590246	0.12113956	0.31705096	-0.16846834	-0.11617513	0.12254573	-0.20384979	-0.22089633	-0.17620476
0.068591945	0.001796409	0.05788756	-0.055689562	-0.42645246	0.04236407	-0.10525937	0.16077593	-0.002004691	0.18800268	-0.06586377	-0.1963601	0.07588474	-0.20045032	-0.072060324	-0.27440158
-0.2628998	-0.36671442	-0.11650499	0.37941432	0.082809806	-0.457428	-0.36733344	-0.37129474	-0.43130916	-0.47125113	-0.114640996	-0.4016647	-0.23126341	-0.4862898	0.42116326	-0.28354293
-0.22995646	-0.5848079	-0.65545726	0.31867692	-0.66053104	-0.35802454	0.48992866	-0.35080612	-0.31914756	-0.5038552	0.6595998	0.00066567375	-0.53522843	-0.1372795	0.37382358	-0.04266517
0.107994966	-0.28074566	-0.15226284	0.14408411	0.015624993	-0.23205134	-0.051872317	-0.056365795	-0.23489368	-0.71799845	-0.10122183	-0.10829589	-0.10130553	-0.080114506	0.17734723	0.08870833
0.1636681	-0.23930325	-0.12975655	0.005676842	-0.17508352	-0.13415858	0.0849255	0.025029583	-0.1464651	-0.7152141	0.05020397	-0.03819417	-0.18159619	-0.035551522	0.13547038	0.102473445
0.13504362	0.014978765	-0.06384588	-0.14056633	-0.12679282	0.20459999	0.19603316	0.13536051	0.22642332	-0.07552373	0.12439103	0.14075358	0.011461753	0.19046843	-0.21081683	0.13641115
-0.23184963	-0.35785702	-0.07169584	0.36573425	0.2791623	-0.40027013	-0.20152989	-0.4072253	-0.346188	-0.6178245	-0.14935583	-0.24808872	-0.25772902	-0.2552623	0.4004588	-0.08036416
-0.446915	-0.6003843	-0.59417623	0.5365808	-0.69077545	-0.43852678	0.511914	-0.46680287	-0.37390146	-0.3012415	0.6130688	-0.083659306	-0.5882138	-0.3409272	0.539716	-0.17745548
-0.0429896	-0.33595794	-0.13207228	0.076856844	-0.60004103	-0.124914974	0.031160848	-0.025460374	-0.1928147	0.19009815	0.026741121	-0.19687034	-0.1233068	-0.33835262	0.19694099	-0.30139887
-0.100853495	0.07951079	0.11366008	0.11123636	0.26027992	-0.15613763	-0.29304966	-0.057243764	-0.24227741	-0.31827205	-0.1187745	-0.19408962	0.074340776	-0.2512636	0.09663625	-0.056164
0.34348115	-0.29631266	-0.32491916	-0.24264006	-0.10228179	-0.0035967086	0.54163665	0.2111	0.14968579	-0.7002752	0.23594427	0.3133273	-0.156031	0.5000766	-0.13149373	0.4643271
0.15304896	0.20959255	0.028255766	-0.257934	0.15347242	0.37575346	0.16014892	0.25056982	0.3182498	-0.13719036	0.034380987	0.11307346	0.08740882	0.23827124	-0.38249075	0.17063253
0.0017800874	-0.03217816	0.34848177	0.15761654	0.42357957	-0.28607088	-0.6190174	-0.15215239	-0.41800243	-0.5635782	-0.5842195	-0.49462026	0.20366399	-0.40039167	0.29319856	-0.3823212
0.12939674	0.03119782	0.08034873	-0.14183444	-0.42447117	0.029856019	-0.12182956	0.12838805	0.0009574919	0.10761484	-0.1304725	-0.18403293	0.12633884	-0.19255851	0.0059680236	-0.22973712
-0.10537282	-0.17455435	-0.26320845	0.07129397	-0.13797535	0.063870296	0.3162897	-0.10388236	0.18417104	-0.007457388	0.29734886	0.1589193	-0.22413328	0.18289608	-0.03949444	0.21114863
0.15505202	-0.11801305	0.0026631854	-0.031537794	-0.44852898	-0.03443094	-0.0126137985	0.12031246	-0.068437345	-0.025751365	-0.070959166	-0.15982306	0.010933474	-0.15399042	0.067754835	-0.10995101
-0.34441456	0.3632263	-0.23050019	0.09219597	0.35240018	0.36897096	0.054077215	-0.17647876	0.3731306	0.43429223	0.2639825	0.26234478	-0.17807752	0.18309201	-0.32825658	0.16397695
-0.28626117	0.58378404	0.12002407	-0.15972705	0.0013876451	0.60942036	-0.23447238	0.063630134	0.3378061	0.6535781	-0.008163441	-0.026616056	0.14098376	-0.056749355	-0.53974277	-0.09799806
-0.28572455	0.39680177	0.20570287	0.10649029	0.465118	0.09730485	-0.4166347	-0.17629533	0.005069724	0.1378037	-0.23243716	-0.16244446	0.08837531	-0.20296273	-0.07399996	-0.0958369
0.018801097	0.000711745	0.0071760803	-0.07447474	-0.24214332	0.038321268	0.02163527	0.034007322	-0.022539215	0.042791784	0.043321993	0.011935647	-0.039220978	-0.0011618071	-0.027060919	-0.027320966
-0.24479896	0.2914677	0.03430818	0.099385835	0.21093227	0.14313152	-0.15758702	-0.15532395	0.06713302	0.11476333	-0.025791317	-0.008371147	0.02584079	-0.0988368	-0.1022176	-0.01301996
-0.05862366	0.17825708	-0.24752948	-0.13741568	0.4459264	0.37499014	0.3121332	-0.033957563	0.33905053	-0.18998377	0.2467022	0.37135732	-0.12160272	0.4805176	-0.33229452	0.46490827
-0.074547715	-0.25764972	-0.02588205	0.17553599	-0.04433021	-0.31844845	-0.32825845	-0.19546676	-0.33985308	-0.28033617	-0.16588238	-0.38316873	-0.004833278	-0.45662814	0.24230595	-0.3728027
-0.39714602	-0.07430533	0.39797264	0.38433844	0.7116986	-0.5444983	-0.5866368	-0.47964698	-0.51307714	-0.52523917	-0.54744405	-0.4508782	0.03945391	-0.48205084	0.44442394	-0.21930058
-0.006649965	-0.37976396	-0.34696972	0.13715348	-0.4732253	-0.24879687	0.18037137	-0.07966793	-0.1719165	-0.35741323	0.13416068	-0.08768308	-0.27001974	-0.116148815	0.22197567	-0.081157744
-0.18702461	0.29528448	-0.09472596	-0.028096572	-0.0036488625	0.35628533	0.034804903	-0.003283768	0.26161176	0.48279452	0.1263044	0.10682999	-0.02254761	0.07552502	-0.3084215	-0.007529461
-0.27910805	0.4622198	-0.111444525	0.05291595	0.48404634	0.4344933	-0.012100948	-0.15424918	0.3628704	0.40107808	0.08381853	0.23648435	-0.0337259	0.23094106	-0.41426003	0.2644475
0.21689022	0.15318014	0.16669045	-0.14551555	0.49809188	0.07235379	0.009973563	0.118811086	0.07471383	-0.53906876	-0.13804309	0.18161708	0.12652925	0.28072807	-0.10319376	0.37011224
-0.23755056	-0.12677239	-0.13158561	0.15866236	-0.28566164	-0.083493285	-0.124893785	-0.0737615	-0.08367546	0.3088325	0.06614721	-0.11285684	-0.07719825	-0.30354294	0.13953303	-0.2569357
-0.3277511	-0.38114446	-0.19289966	0.4423393	0.08458877	-0.43431282	-0.26279882	-0.4431293	-0.4591798	-0.49739182	-0.05088548	-0.31383324	-0.28580475	-0.46771824	0.44521677	-0.25717613
-0.24826792	0.41324368	-0.12693435	0.1635629	0.3384251	0.2597518	-0.0460889	-0.1593268	0.24786456	0.24364054	0.12802088	0.17517908	-0.093037374	0.05051567	-0.25762942	0.16377027
0.060777545	0.38827595	0.18251495	-0.2341166	0.30322877	0.22561897	-0.14573705	0.12782513	0.15290941	-0.17583069	-0.2353	-0.02825722	0.26563385	0.030292394	-0.32340875	0.085628495
-0.23412035	0.48940784	-0.31983337	-0.039538357	0.28009203	0.59042454	0.3289511	0.00076658686	0.53243786	0.3893711	0.36614496	0.40833363	-0.23236646	0.48066485	-0.5352172	0.37791565
0.22844833	0.36889797	0.21582764	-0.346125	-0.1252539	0.42291385	-0.060511157	0.3752323	0.32897702	0.074128784	-0.16337232	0.005000683	0.20967609	0.19198953	-0.45539817	-0.030210605
-0.6008563	-0.71460336	-0.7008439	0.52647823	-0.80402386	-0.4739934	0.49197167	-0.55550975	-0.2858748	0.018821398	0.64577305	0.07507896	-0.6278384	-0.16010301	0.5916866	0.049571436
-0.54975235	0.0342605	-0.5993932	0.44518095	0.43524384	0.2871062	0.44815993	-0.5224195	0.34344572	0.39589396	0.49433288	0.45754057	-0.5810919	0.30297062	-0.20152526	0.43781766
-0.12936372	-0.30770066	-0.19721283	0.1386041	-0.53754306	-0.032194648	0.111813955	-0.05183559	-0.07915363	0.20455787	0.19469441	0.045635622	-0.135564	-0.14261904	0.16255389	-0.04596091
0.106360346	0.013471	-0.04191266	-0.07952918	0.4913469	0.02610073	-0.010962558	-0.05551298	0.056850735	-0.52821743	-0.016872799	0.14622563	-0.07730318	0.12842758	-0.06481923	0.31404004
-0.4680734	0.19097002	-0.40744102	0.2655764	0.5154734	0.18469098	0.17342843	-0.34153324	0.25595522	0.32530895	0.4036115	0.3623532	-0.36934537	0.16977811	-0.20449696	0.3640637
0.01582731	0.15633558	-0.2036553	-0.19353907	-0.001870885	0.35729975	0.30785623	0.111144155	0.35647094	-0.006108991	0.19240816	0.21988913	-0.0969963	0.32509637	-0.29393026	0.20762955
-0.5739286	0.36888918	-0.2397519	0.520371	0.7977591	0.057924964	-0.0075683906	-0.61910754	0.10546091	0.36217543	0.19613755	0.27847385	-0.38366696	0.05262091	-0.05048646	0.30097252
-0.111680575	0.12968436	-0.19629128	-0.020611603	0.3031622	0.22554773	0.14591928	-0.09291134	0.25388664	0.08629368	0.24207763	0.2934459	-0.1399667	0.20732377	-0.23734488	0.29874992
0.12263318	0.1781555	0.26086566	-0.1333611	-0.20622586	-0.009287052	-0.42500773	0.123339936	-0.3130029	0.016098728	-0.3519723	-0.34423196	0.19863558	-0.38972333	-0.011578645	-0.36619228
-0.2558591	0.48529875	-0.144736	0.11795953	0.27707425	0.4561587	-0.0214485	-0.10189511	0.36254725	0.4733833	0.16701376	0.14637113	-0.084336415	0.111360714	-0.37380216	0.12493129
0.37888825	0.47467816	0.38420248	-0.41379988	-0.37158957	0.4962908	-0.4066742	0.36441302	0.063443996	0.29702213	-0.4331301	-0.37272272	0.390003	-0.20219931	-0.43847042	-0.33497873
-0.24445367	0.06312033	-0.26086223	0.04508821	0.19731328	0.22226982	0.2719556	-0.13805863	0.27832288	0.23093536	0.281206	0.35559362	-0.24616666	0.29324472	-0.2052796	0.26404232
-0.4419672	-0.051351372	-0.36730492	0.34334773	0.37411487	0.0873433	0.23216893	-0.39713317	0.20856215	0.20426887	0.34948352	0.30604702	-0.34667987	0.20066859	-0.049915537	0.3046967
-0.463281	0.48608422	-0.017775504	0.3272721	0.64053947	0.1325946	-0.24288143	-0.41723582	0.12787859	0.20459028	-0.0065445653	0.111431465	-0.11277842	-0.06438172	-0.028844608	0.1617503
-0.298845	-0.6629832	-0.5906516	0.53024554	-0.83274966	-0.5260047	0.34191748	-0.47064212	-0.50546557	-0.27409396	0.44986954	-0.21971528	-0.5917605	-0.45346487	0.6296372	-0.25856125
-0.39891395	-0.18767092	0.42964265	0.4695504	0.81947535	-0.51065737	-0.5289315	-0.48994	-0.5461846	-0.50614023	-0.5661416	-0.5149762	0.035052568	-0.4934203	0.46900117	-0.35514998
0.18079144	-0.17496581	0.026308538	-0.024744004	-0.07171389	-0.1475924	0.009249213	0.050533205	-0.14496125	-0.52151734	-0.10017232	-0.20238945	-0.039120607	-0.008800016	0.15423831	-0.05425531
0.1206885	0.071627125	0.06505915	-0.20373517	-0.5671655	0.21623614	-0.06928288	0.24308705	0.11515599	0.3571935	-0.09901218	-0.098644964	0.123798266	-0.05469635	-0.1436781	-0.21817093
-0.2795067	-0.12763387	0.12557594	0.21216223	0.2062607	-0.29967883	-0.35458088	-0.26638567	-0.32046628	-0.35489845	-0.24624556	-0.30912703	-0.050449647	-0.36762175	0.3199355	-0.20119151
-0.15616575	0.059206687	-0.061141703	0.09090947	0.14720419	0.10973525	-0.019813403	-0.092463546	0.075566314	0.0835501	0.08277989	0.1388252	-0.105829775	-0.018893663	-0.068475455	0.06932781
-0.27018228	-0.40225047	-0.3130124	0.34470254	-0.40397295	-0.36630708	-0.014705748	-0.26043096	-0.39585063	-0.26098326	0.09289287	-0.22918084	-0.30360332	-0.34256995	0.3526454	-0.24581096
-0.3263927	-0.1184302	-0.14951031	0.24512096	0.4668961	-0.24950883	-0.12643054	-0.36527327	-0.12834288	-0.32440197	0.037485268	-0.0026511792	-0.17013355	-0.14741217	0.24762154	0.16727181
0.20550108	-0.13097212	-0.009471945	-0.17772138	-0.50038207	0.08176285	0.13523334	0.2372413	-0.017110847	0.017804762	0.006627222	-0.107667066	0.030659666	0.017630467	-0.03387037	-0.11880845
0.12851627	-0.3517226	-0.17230414	0.20083326	-0.33790255	-0.3006508	-0.022372572	-0.049206387	-0.46166062	-0.57291675	-0.09849456	-0.34583947	-0.21369499	-0.37084627	0.2579122	-0.354493
0.12093479	0.120972164	0.11013918	-0.09949628	0.17123456	0.0022969302	-0.05687864	0.063154176	0.017203638	-0.30853567	-0.14682844	-0.0522811	0.15391323	0.111410104	-0.047975473	0.11473207
-0.37370965	-0.06380618	-0.19759601	0.29219756	0.17269559	-0.06736931	-0.14163055	-0.24162665	-0.040855274	0.21422979	0.08442125	0.009076017	-0.15122353	-0.13670498	0.1089678	-0.015476446
-0.30135375	-0.14517961	0.07408234	0.3458411	0.18058178	-0.2317051	-0.37975413	-0.2570418	-0.25976196	-0.19328912	-0.24532391	-0.27650142	-0.05923134	-0.3027714	0.23824337	-0.2667022
0.083667696	-0.06715491	-0.019046484	0.008698856	-0.5797876	-0.0741887	-0.09414198	0.1314062	-0.12721205	0.25247017	-0.057266723	-0.13188376	0.005216352	-0.2642872	0.08544268	-0.17290172
-0.12569049	-0.37154037	-0.3871735	0.21765329	-0.17188841	-0.05213827	0.26313755	-0.24716744	0.0067519257	-0.06706491	0.28270203	0.091404565	-0.36348066	0.04934846	0.16945201	0.1591906
-0.47871074	0.22125956	-0.47255853	0.51539594	0.38349876	0.355827	0.3008743	-0.42841747	0.36686298	0.45389354	0.44193894	0.32441244	-0.4816069	0.31523824	-0.28733933	0.294952
-0.17101665	0.18408126	0.109000094	-0.0121017145	0.35669598	0.07234274	-0.22177039	-0.057439506	0.09483969	-0.07642315	-0.09886558	-0.0058739567	0.024101077	-0.0075897695	-0.10750632	0.047859278
-0.31850418	0.2673078	0.017168162	0.16157734	0.4689996	0.013354793	-0.13408877	-0.2320653	0.037137672	0.14260247	0.017761178	0.010183324	-0.057422366	-0.000951414	-0.052076872	0.047082298
-0.04061032	-0.08185615	-0.17454945	-0.028408177	-0.039299823	0.030055033	0.14576706	-0.02494537	0.104022026	-0.10192816	0.113249995	0.051526442	-0.04793232	0.08664298	-0.0025606698	0.09552842
-0.09818227	0.36540356	0.38219994	0.032077193	0.31987047	-0.07206679	-0.49868473	-0.0074737943	-0.23122683	-0.016996622	-0.37554103	-0.32365546	0.31728992	-0.3870453	-0.037454266	-0.27695358
0.06694176	-0.2707061	-0.2225072	0.029552275	-0.5442851	-0.09678083	0.17879066	-0.003550606	-0.068864465	0.005668151	0.06859033	-0.074032515	-0.15107568	-0.1624234	0.18909076	-0.15724134
0.012586539	0.09202628	-0.04768791	-0.08290624	-0.03820598	0.20504819	-0.019649647	0.10510219	0.20182616	-0.12759534	0.06472506	0.09528975	-0.031623308	0.043205597	-0.20258602	0.115800336
-0.16069414	-0.22711405	-0.22784494	0.14402887	-0.083454095	-0.13021293	0.09752445	-0.1849434	0.032951258	-0.0054791626	0.19271356	0.05906703	-0.298014	-0.021388248	0.1821352	0.07721366
-0.1528007	-0.26595515	-0.2211906	0.13272978	-0.3664404	-0.13379999	0.06941619	-0.14914043	-0.120710455	0.027249694	0.10437326	-0.07135776	-0.20520389	-0.16669004	0.18822959	-0.062161982
-0.30453268	0.28764257	-0.4102069	0.07142256	0.44183126	0.46593767	0.4387054	-0.16744094	0.49126017	0.36831722	0.41158873	0.42504564	-0.35373232	0.42401895	-0.38130292	0.470186
-0.10578742	-0.13464382	-0.13434952	0.16561233	0.16007452	-0.09593938	0.0029813605	-0.19289212	-0.081599474	-0.17975463	0.09923311	0.011904448	-0.13303696	-0.016079266	0.10069702	0.086570546
-0.048274174	-0.070959665	0.033221714	0.101334386	0.17640984	-0.17685391	-0.22728255	-0.15124086	-0.22057915	-0.46710563	-0.05949237	-0.14108905	-0.059886437	-0.14579685	0.17815083	-0.010575339
-0.044034295	0.10949054	-0.15694515	-0.02347045	0.1422897	0.26311582	0.27190986	-0.016210066	0.288255	0.06603876	0.14017504	0.23574539	-0.08855163	0.32173982	-0.15910974	0.2401759
-0.27551237	0.30044448	0.12997708	0.0587661	0.2891889	0.13098931	-0.24787588	-0.081584305	0.11811159	0.37055507	-0.06935325	-0.075765684	0.11399959	-0.18054496	-0.1524158	-0.08112142
0.017529488	-0.019244418	0.26354882	0.016054548	0.12386708	-0.156082	-0.60796815	-0.0939866	-0.30111995	-0.22932334	-0.4705533	-0.4889887	0.14767241	-0.5331607	0.1923295	-0.327724
0.47388145	0.24963786	0.30858836	-0.42184833	-0.15481925	0.21546021	0.02418744	0.3906133	0.1265564	-0.43628132	-0.2941044	-0.11589825	0.30058432	0.24531768	-0.33378816	-0.0014471875
-0.08078231	-0.20364182	0.089567505	0.15444739	-0.3199868	-0.27144217	-0.30291083	-0.09912811	-0.3601095	-0.22547203	-0.18002929	-0.3766356	0.08101018	-0.40572423	0.3224228	-0.31415474
-0.58256614	-0.6339954	-0.69710374	0.48146918	-0.66129875	-0.46374574	0.44987276	-0.4627156	-0.39639768	-0.26675436	0.63979906	-0.0680047	-0.645462	-0.32150674	0.5051967	-0.13597088
0.045387145	-0.20125896	-0.19134347	0.04334134	-0.7792505	-0.066882215	0.08736633	0.008355925	-0.07576402	0.37750512	0.053999	-0.23302796	-0.08612249	-0.25459397	0.16966462	-0.3013412
0.03865914	0.2162395	0.29636717	-0.13974491	0.06305058	0.0044014165	-0.28803453	0.08788085	-0.15176296	-0.1743968	-0.28089592	-0.21464303	0.18281439	-0.24437568	-0.016431475	-0.19575709
0.0031762046	0.009088866	-0.07576105	-0.07902264	-0.10699503	0.09073405	0.028141532	0.028695276	0.12370769	0.076919846	0.047061983	0.099624984	-0.05828267	0.039369196	-0.10593462	-0.023630172
-0.13013613	-0.010577092	-0.1544526	-0.008928878	0.06358435	0.097234756	0.16063416	-0.052810654	0.14114046	0.048959006	0.13097383	0.13893804	-0.06756967	0.1302656	-0.082049794	0.11973925
0.36866093	-0.043303344	0.14180472	-0.27033877	-0.6146439	0.021977944	0.032340117	0.29843563	-0.17975862	-0.23926935	-0.16619393	-0.27529532	0.19064277	-0.10063264	-0.09522972	-0.1966764
-0.36967412	0.007656488	-0.121435344	0.19674185	0.03369912	0.07896447	-0.03457415	-0.23691504	0.065848015	0.37157944	0.1621148	0.05063404	-0.18723775	-0.063168876	-0.04699681	-0.026987405
-0.10015419	-0.36217806	-0.2891263	0.23582068	-0.47125304	-0.19224639	0.11841473	-0.15074989	-0.093158364	-0.14039952	0.18286677	-0.07277664	-0.224298	-0.09468624	0.25331864	-0.03000477
-0.18789116	-0.3065217	0.009295508	0.2524559	0.17161548	-0.4141845	-0.2579275	-0.3117464	-0.45039982	-0.42635134	-0.15049353	-0.25261956	-0.109134376	-0.40684918	0.34712556	-0.148544
-0.19313827	0.42275202	-0.12076837	0.057029676	0.24520738	0.39470014	0.15083236	-0.15252927	0.4347159	0.4420977	0.2447254	0.26250476	-0.16743752	0.30923843	-0.3485803	0.19308253
-0.21401714	-0.4856283	-0.4087671	0.24623322	-0.70844436	-0.27353916	0.18838975	-0.23262101	-0.2506662	-0.053538945	0.3488385	-0.1570737	-0.36979213	-0.314819	0.31168172	-0.31192896
0.28699154	-0.18427083	-0.13251506	-0.19507384	-0.34611008	0.013810692	0.20872608	0.19367456	0.008057845	-0.6241479	0.12112004	0.055919293	0.012421658	0.16198573	-0.03806992	0.15578862
0.11950066	-0.12583601	0.061887246	0.04131194	0.026079793	-0.120203495	-0.049543053	-0.06721833	-0.118286066	-0.5114806	-0.13409628	-0.10041384	-0.04195537	-0.05795639	0.15783212	-0.011187941
-0.03797897	-0.2223274	-0.2623442	0.083153464	-0.0075983	-0.07596523	0.20022245	-0.14124408	-0.009523112	-0.20988062	0.16852614	0.07706216	-0.17909044	0.1106817	0.1404141	0.22173618
-0.086682014	-0.25795534	0.099616244	0.19536763	0.5184771	-0.30758277	-0.19361576	-0.290995	-0.26281035	-0.73718303	-0.24176326	-0.20381483	-0.13973737	-0.1579848	0.24944587	0.009513565
0.55072993	0.06805589	-0.24872513	-0.48499408	-0.10775091	0.31604323	0.5228536	0.4478439	0.41030166	-0.6942411	0.3489404	0.45918712	0.07856708	0.5454471	-0.405861	0.5148256
0.0059939898	0.23165345	0.005970549	-0.21816136	-0.04883921	0.45153245	0.017976293	0.101692915	0.36933985	0.47913438	0.0048897075	0.01330473	0.08549612	0.0972828	-0.36183187	-0.020516638
-0.051990133	0.19230361	-0.07828974	-0.03477554	0.24065474	0.24848391	0.11715697	-0.01857249	0.20720725	0.027885783	0.18587063	0.23061831	-0.08292762	0.3060487	-0.26713246	0.2901615
-0.6301836	-0.14346334	-0.5224166	0.60687935	0.25079733	0.06891846	0.23605572	-0.5860272	0.16311236	0.5053533	0.4842514	0.22069684	-0.47985068	-0.04176262	0.050633047	0.21855304
0.029315952	-0.11683336	0.14493908	0.0415545	0.15761107	-0.20059556	-0.22021857	-0.13660747	-0.2805742	-0.58770657	-0.2167285	-0.22233923	0.028501017	-0.104196176	0.19398285	-0.04139059
0.14819318	0.42222917	0.35319045	-0.29897112	-0.013525106	0.28163806	-0.3394695	0.26043645	-0.06815125	0.10582309	-0.3061566	-0.30290306	0.24377504	-0.21655972	-0.28047314	-0.28644082
-0.49185988	-0.6012522	-0.52012694	0.4924897	-0.3516299	-0.48398957	0.13050355	-0.49928978	-0.3765694	-0.31071085	0.38027427	0.02815729	-0.5445028	-0.2890221	0.46396002	0.032878526
0.26169375	0.15401712	0.16634971	-0.26799223	-0.3253694	0.11487401	-0.26557076	0.22766665	-0.16073199	0.057597075	-0.27876195	-0.29994106	0.21294872	-0.34081334	-0.08635639	-0.3388237
-0.40086827	0.028949644	-0.046177067	0.2924357	0.09638701	-0.028343268	-0.2033637	-0.23245992	-0.07880275	0.3261493	0.0015382094	-0.040660776	-0.10113146	-0.2541211	0.16011068	-0.15724105
0.36721158	0.33723336	0.33480436	-0.35691598	-0.18021604	0.33061656	0.017834648	0.39459443	0.2760496	-0.36685714	-0.19957063	0.04055415	0.2963699	0.2513904	-0.30652	0.06602281
-0.1437533	0.2946326	-0.2647781	-0.11567448	0.30748248	0.45891306	0.33494106	-0.018063573	0.35886306	0.23144431	0.25804898	0.3310893	-0.21187072	0.32747337	-0.4059882	0.3657142
-0.43745747	0.15408744	-0.19091167	0.35888353	0.4998897	0.1828364	-0.10156631	-0.3152082	0.2258558	0.34981695	0.29688796	0.24867722	-0.25321496	0.005981277	-0.089447826	0.22583486
-0.097301885	-0.12766226	0.008782643	0.17930622	0.34839678	-0.16357265	-0.24972185	-0.20876327	-0.19095229	-0.4761626	-0.105503626	-0.09642162	-0.05901329	-0.101922095	0.121254995	0.068700254
0.22623225	0.25052136	0.050354354	-0.3676211	0.07047952	0.36263457	0.18037982	0.266707	0.35658696	-0.082504585	0.06674362	0.21519534	0.13754298	0.36345527	-0.37169906	0.2753973
0.20484145	0.08319667	0.16894865	-0.21454223	-0.37053585	0.060551733	-0.1533654	0.17150977	-0.010379453	0.15918098	-0.20855069	-0.2150354	0.1580037	-0.22077014	-0.08939538	-0.27987835
-0.26734582	-0.10774552	-0.17640796	0.14925176	-0.09590594	-0.052575745	-0.04704552	-0.12238015	-0.005506323	0.05808045	0.11790086	0.050986394	-0.14128846	-0.057238065	0.11471119	0.016653711
0.0008601707	0.14299308	0.49114692	0.08669014	0.55324394	-0.24262455	-0.49912658	-0.113132395	-0.38166022	-0.510857	-0.5656708	-0.46159366	0.27248776	-0.34331444	0.18440828	-0.20893912
-0.28229943	-0.104158	-0.50477314	0.14540619	0.10684138	0.25811213	0.45127964	-0.25749016	0.31501395	0.23698737	0.48423398	0.32754484	-0.39579144	0.25065613	-0.19442956	0.33682185
-0.614245	0.5904475	-0.45782885	0.49024048	0.5936023	0.46496567	0.3936665	-0.5509788	0.4905263	0.63722074	0.5165735	0.43359214	-0.4855931	0.35847932	-0.43954164	0.40050325
0.07118395	0.22600518	0.2739599	-0.20648976	-0.18423662	0.072930366	-0.44790423	0.16623348	-0.25673625	-0.012332088	-0.33709913	-0.4149197	0.22865812	-0.4580821	-0.11608044	-0.37383392
-0.10961136	-0.32475582	-0.31781095	0.17764853	-0.6599866	-0.15184548	0.29970834	-0.08305286	-0.05377047	0.14880891	0.24982265	-0.053341094	-0.25806883	-0.20615388	0.18634021	-0.21639664
-0.081542194	0.030978447	0.09556729	-0.01028876	0.27124137	-0.035627674	-0.25197905	-0.07790917	-0.10931801	-0.2795205	-0.20756322	-0.116152585	0.011248858	-0.09800385	0.02918701	-0.06332174
0.017198185	0.51757526	0.23893288	-0.17855883	0.3830454	0.29395902	-0.20562759	0.124374375	0.23257051	-0.0619151	-0.26467934	0.08562736	0.22164518	0.08972767	-0.3715091	0.07167118
0.23384225	0.1812722	0.29845142	-0.15646447	-0.07893738	0.011134087	-0.3967665	0.20127077	-0.23828802	-0.25652933	-0.40053928	-0.3702741	0.3135477	-0.32546625	-0.00832622	-0.37883863
0.29879066	-0.047693223	0.16978362	-0.13974862	-0.36968908	0.08361776	-0.11284523	0.1469583	-0.0484555	-0.30584297	-0.14807886	-0.22459623	0.15769035	-0.020591669	-0.0930366	-0.11219668
-0.18696456	0.046766408	0.043815494	0.11477558	0.096470006	-0.08680993	-0.20381558	-0.18246911	-0.09609365	0.08643351	-0.04036751	-0.0777994	0.010159292	-0.22479838	0.122155584	-0.1051361
0.002459708	0.0032396207	-0.09043794	-0.07988295	0.28408244	0.07071456	0.048820682	-0.028439214	0.04214416	-0.33971515	0.030103223	0.1427717	-0.052468553	0.12939265	-0.09274016	0.22664647
-0.30239835	0.05134528	0.43390316	0.296699	0.5582784	-0.28484195	-0.44260916	-0.3560306	-0.35222045	-0.44602582	-0.4904419	-0.4213353	0.080855645	-0.4415107	0.28450766	-0.29221186
0.31902662	0.11451275	0.2291097	-0.32583532	-0.11770271	0.1317276	-0.08579872	0.30077288	-4.816916e-05	-0.36828998	-0.20954458	-0.15799224	0.19838195	0.048877873	-0.13416499	-0.06440502
0.15855101	0.0939495	0.28776383	-0.17027278	-0.27085084	0.0050666654	-0.26343092	0.14495376	-0.22620443	-0.02949513	-0.27500305	-0.36646014	0.19097273	-0.2799003	-0.07635542	-0.2773639
-0.3005179	-0.014487189	-0.33779967	0.10686508	0.21720266	0.122048646	0.26391414	-0.19887543	0.21009697	0.15977895	0.3748871	0.38657475	-0.22160321	0.23611552	-0.097995095	0.3007388
0.35532963	0.43765467	0.36717	-0.46567166	-0.40685666	0.55726206	-0.31127813	0.43449426	-0.0067146327	0.32208177	-0.30806524	-0.32306838	0.330607	-0.27827397	-0.5468934	-0.33868918
-0.3716334	-0.10785332	0.32480806	0.32562548	0.6062829	-0.37051362	-0.50362945	-0.41780853	-0.39847636	-0.47191748	-0.5336894	-0.3992166	0.05127627	-0.3948605	0.34846404	-0.2782028
-0.021271393	0.2306427	-0.11335723	-0.11833193	0.02239116	0.35007876	0.12665673	0.11690761	0.3734678	0.31023043	0.11159879	0.18964581	-0.041792464	0.23513062	-0.2714608	0.17121217
0.35865209	0.47455835	0.4553589	-0.3873935	-0.5972178	0.29718724	-0.5539312	0.38403282	-0.3183803	0.38213196	-0.5182168	-0.5661381	0.45971167	-0.6957305	-0.24632622	-0.6196683
-0.2703266	-0.07604319	-0.1008638	0.23049076	0.21540932	-0.13003334	-0.09472793	-0.24238269	-0.083944775	-0.1503918	0.052140348	0.058589887	-0.17543136	-0.057048213	0.1881826	0.08810868
-0.07726027	0.028372291	-0.03900988	0.06552497	0.3432456	-0.010993474	-0.101594694	-0.12365866	-0.0108161615	-0.33708617	-0.016823364	-0.015701318	-0.091597885	0.01791558	0.03704492	0.15958074
-0.28623474	0.0028048125	0.6487105	0.3898349	0.7444619	-0.4702131	-0.6623371	-0.48877928	-0.51593626	-0.61556524	-0.6506706	-0.5977324	0.28155413	-0.48153478	0.42580187	-0.44940642
-0.3759862	-0.025320092	-0.22792909	0.25763378	0.26039773	0.007958119	0.11235123	-0.3160979	0.16366076	0.2222542	0.26016316	0.2895899	-0.25144866	0.11118569	-0.025945526	0.19562145
0.10127679	-0.3096003	-0.15181084	-0.027950956	-0.45596743	-0.085169286	0.02796532	0.14359026	-0.12313415	-0.07802553	0.031946044	-0.0789833	-0.09765055	-0.07169258	0.10900244	-0.1317388
0.08508108	0.06781604	0.1741427	-0.052561127	-0.10550682	-0.069185555	-0.19307676	0.07083877	-0.1100172	-0.11276377	-0.20270996	-0.21988814	0.13565029	-0.12363084	0.036388494	-0.19432011
0.080626376	0.051881894	0.2712146	-0.030598555	0.41591758	-0.16745764	-0.2790448	-0.019870143	-0.18641713	-0.48001045	-0.3347938	-0.16269983	0.13087267	-0.06949712	0.11113228	0.006870528
-0.5567935	-0.4625046	0.018723127	0.5973528	0.47015837	-0.624123	-0.3933951	-0.6587901	-0.52503866	-0.64469326	-0.3059099	-0.33600253	-0.300423	-0.40406564	0.53331393	-0.25979337
0.06521326	0.06049022	-0.09732214	-0.08587558	0.20863335	0.06412299	0.08996754	0.06143015	0.15289506	-0.37650365	0.09076675	0.1672647	-0.052089397	0.19960439	-0.08933687	0.24916746
-0.39290845	-0.5191475	-0.5007876	0.4588079	-0.56605583	-0.33801997	0.4099476	-0.34841797	-0.36172393	-0.17916116	0.428151	-0.042382415	-0.553217	-0.26345178	0.38994518	-0.16051762
0.34704554	0.55504286	0.29103768	-0.44761068	-0.220363	0.51474	-0.0505581	0.413427	0.34908357	0.06262941	-0.2836077	-0.08190922	0.3548739	0.19505368	-0.4568039	-0.09467354
-0.018931689	0.083533555	0.111655295	-0.061552666	0.117275685	0.056436434	-0.16344084	-0.05003492	-0.09422674	0.0090808105	-0.11641469	-0.120800115	0.10125943	-0.18269318	-0.028769694	-0.14251322
0.056102842	0.5712791	0.34500638	-0.36496133	-0.14548495	0.4832031	-0.44400546	0.2698666	0.104553565	0.5127562	-0.33895054	-0.29161572	0.3880747	-0.2422803	-0.51976496	-0.3572744
0.43754748	0.09021929	-0.007582867	-0.39870566	-0.15424725	0.31566954	0.43791136	0.33875751	0.30860868	-0.5225224	0.08908375	0.26566544	0.1759992	0.4736323	-0.33516324	0.41478816
-0.14346594	-0.13976873	-0.045364805	0.20615266	0.20781547	-0.24556586	-0.13489136	-0.23229058	-0.2781266	-0.42092875	-0.04005355	-0.14776403	-0.09956988	-0.17311342	0.18133783	0.0017360299
-0.053059947	-0.15604632	-0.071509846	0.07421428	-0.11435831	-0.2211858	-0.039907396	-0.11365794	-0.1893359	-0.3458023	-0.055422988	-0.20505959	-0.15730323	-0.09479614	0.14570604	-0.11436593
0.22016984	-0.084262714	0.1447714	-0.058725405	-0.28905883	-0.04698514	-0.17357962	0.08065873	-0.13310887	-0.22361445	-0.2871443	-0.26681566	0.1612255	-0.22274336	0.09783508	-0.22611988
0.22033954	0.20622633	0.4873498	-0.13847199	0.069122605	-0.035094965	-0.4578637	0.13858229	-0.18787557	-0.19751018	-0.47654286	-0.45947152	0.40354255	-0.3862162	0.006141249	-0.4050721
-0.3799542	-0.3684015	-0.1932665	0.4706457	0.6124766	-0.47025076	-0.17458192	-0.50168246	-0.27456912	-0.37450364	0.11179971	0.052072205	-0.33147916	-0.17259058	0.41006765	0.21048667
0.4502852	0.2733575	0.28536463	-0.29787827	-0.32265496	0.23502867	-0.14651571	0.31494007	-0.057624776	-0.19961153	-0.3056804	-0.2215403	0.32003468	-0.036898892	-0.24219099	-0.17117247
-0.24711636	-0.09327365	-0.18191294	0.105360106	0.0006650971	0.12564935	0.10590116	-0.16288982	0.19092189	0.29037362	0.19064869	0.099241085	-0.19026195	0.019578908	-0.04758935	0.0645463
0.0070990366	-0.3025378	-0.16327406	0.16673239	-0.3832419	-0.17414188	-0.043643706	-0.07183851	-0.20990892	-0.21894132	-0.047671296	-0.21424401	-0.14414635	-0.22159007	0.17686133	-0.1357328
0.109624885	0.44669783	0.20752953	-0.30149257	-0.03762953	0.46113876	-0.06391165	0.32437778	0.2982794	0.16337171	-0.09837766	0.060389757	0.2598412	0.12901308	-0.37591004	-0.039849095
-0.5388343	-0.41748774	-0.3944296	0.5829175	0.057333343	-0.35376275	0.0018661715	-0.5125763	-0.22889338	0.0026272116	0.25892186	0.009270774	-0.44863483	-0.31987885	0.37572816	-0.08029824
-0.2634809	-0.07710347	-0.024742011	0.27126843	0.4996992	-0.23077169	-0.19899867	-0.34879312	-0.1627224	-0.35107347	0.0145808635	0.006763835	-0.22241601	-0.072881475	0.21041667	0.2069442
-0.0611862	-0.08962124	0.13628972	0.08204931	-0.4254015	-0.18132414	-0.3830693	0.042985514	-0.3284514	0.029087014	-0.2994044	-0.4124101	0.13304389	-0.47921726	0.18062288	-0.4558225
-0.2918104	0.4468012	-0.106074	-0.055693332	0.42621592	0.45337203	-0.034994587	-0.04468823	0.41339803	0.42778835	0.13332999	0.27857178	-0.0073431027	0.28184524	-0.3277685	0.25738412
0.04172286	0.16368708	0.12473653	-0.16093425	-0.34008875	0.19495486	-0.2198814	0.21053542	-0.053035803	0.3838785	-0.19592078	-0.31228247	0.18499765	-0.27963242	-0.17730393	-0.32323447
-0.13998319	0.58175665	0.13148603	-0.2318823	-0.110959	0.6162252	-0.15662266	0.13827467	0.42009416	0.68585104	-0.008695765	0.062103573	0.1597184	-0.04233651	-0.5476727	-0.15186393
-0.17588402	0.013608591	0.05211408	0.19481477	0.14798702	-0.20378369	-0.27135125	-0.16109616	-0.22925165	-0.021385554	-0.19386789	-0.2003714	0.007971601	-0.3178774	0.10392971	-0.1392316
0.0067185764	-0.073778994	-0.002647086	0.0031478791	-0.28015417	0.017858451	-0.039268363	0.004144407	-0.0035221665	0.018116767	-0.029342907	-0.08698465	-0.027471583	-0.10427994	0.023938142	-0.09136131
0.038058184	0.2911279	0.0609958	-0.15540339	0.028935393	0.2570199	-0.030801186	0.18373558	0.21520516	0.02839697	-0.08004401	0.09350557	0.14279653	0.12486027	-0.23938903	0.03640444
0.11553214	0.4900819	0.55441076	-0.1972572	0.44103777	0.02923881	-0.64074934	0.13258375	-0.25490326	-0.41587326	-0.6147404	-0.45821396	0.42774948	-0.3403492	-0.089860074	-0.36640713
0.26828417	0.21908772	0.18068428	-0.3189475	-0.37512538	0.23554856	-0.16315113	0.31799307	-0.051381923	-0.010521955	-0.21726598	-0.2636414	0.257366	-0.114485554	-0.17085993	-0.16227664
0.0448663	0.06866809	0.06422608	-0.15815912	-0.54507875	0.24451934	0.005864133	0.21408843	0.121794984	0.56409407	-0.005131354	-0.031403065	0.06826851	-0.08957341	-0.16351692	-0.157413
0.59066737	0.6463993	0.55129856	-0.61645424	-0.7083393	0.6669157	-0.49132392	0.6233215	-0.019830836	0.7545117	-0.55466783	-0.62105227	0.6145989	-0.5567953	-0.63868976	-0.6433325
0.14468536	0.15493874	0.374255	-0.05034036	0.26864848	-0.14707255	-0.450369	-0.032014098	-0.29930627	-0.36861292	-0.47105828	-0.33031946	0.2421131	-0.3040261	0.08772863	-0.3283175
-0.46402857	0.5439793	-0.3526377	0.20298323	0.603658	0.56224793	0.31542352	-0.33588314	0.5022279	0.5290185	0.38553163	0.49916524	-0.3621287	0.46909884	-0.4818132	0.47901702
0.17718537	0.26929906	0.2475864	-0.24014479	-0.14077683	0.22156201	-0.24135561	0.23562206	0.062178988	0.0878285	-0.26147234	-0.2950104	0.29694012	-0.10783332	-0.20099126	-0.26456204
-0.13036309	-0.24713081	-0.25814477	0.062336657	-0.18309595	-0.04159028	0.2010693	-0.07545227	0.0009986032	-0.035886653	0.2957603	0.10801537	-0.2624072	0.034971725	0.09631254	0.06960228
0.030625707	-0.4124897	-0.1494298	0.18309695	-0.44464558	-0.3893578	-0.0867002	-0.18575712	-0.34457844	-0.46702102	-0.14593767	-0.37249544	-0.16356422	-0.25863522	0.28108126	-0.3183695
0.46837994	0.5409443	0.46780798	-0.42718855	-0.5569809	0.5393082	-0.36033612	0.50454015	0.15819992	0.5738773	-0.48960373	-0.47777656	0.38196617	-0.46001753	-0.454685	-0.46475533
-0.16872355	-0.0880475	0.0106939515	0.16542573	0.38132256	-0.15576999	-0.16243953	-0.19057824	-0.12719247	-0.46627343	-0.06365215	-0.03797619	-0.0733014	-0.10959879	0.15647613	0.09525546
-0.18693021	-0.2629223	-0.10814262	0.15316811	-0.15861064	-0.20073387	-0.015832154	-0.16721033	-0.15225638	-0.0030770532	0.022220707	-0.07125164	-0.10845455	-0.1635013	0.23176514	-0.06843912
-0.50014913	0.4960958	-0.43983045	0.42924836	0.54839784	0.42868197	0.20758872	-0.4669078	0.38038883	0.5798249	0.44637123	0.4183373	-0.43547276	0.25034517	-0.34224865	0.31206393
-0.38209212	-0.14471781	0.30124435	0.35484415	0.6596555	-0.35530296	-0.46489683	-0.4066828	-0.38343328	-0.43590045	-0.34515628	-0.30724254	-0.04955917	-0.3224914	0.31925783	-0.1984648
-0.100577354	0.4687703	0.1335489	-0.019030085	0.2029792	0.19505182	-0.24249458	-0.011381083	0.0776855	0.12593573	-0.116434224	-0.05923123	0.15846646	-0.1307256	-0.15460512	-0.09106384
-0.31990814	0.18346195	-0.21372151	0.15615952	0.43418783	0.15700635	-0.049851898	-0.22946979	0.25432405	0.2520058	0.22953953	0.2520905	-0.2135599	0.058643386	-0.12558898	0.17127202
-0.26110786	0.027584387	-0.18347429	0.15422796	0.31682247	0.10745134	0.04423303	-0.18114474	0.15305153	0.05309604	0.19988321	0.2564604	-0.20771891	0.1624262	-0.04111522	0.2989719
-0.05161033	-0.34953976	-0.12575467	0.22045931	-0.1551952	-0.26679265	0.015217784	-0.113866664	-0.2803345	-0.3571836	0.031566102	-0.12517048	-0.14349021	-0.17441638	0.25081766	-0.068654075
-0.048745245	-0.347739	-0.09480905	0.17176281	0.008966125	-0.26656535	0.016221656	-0.18212585	-0.27276185	-0.57201767	0.03052649	-0.04886768	-0.15425988	-0.049998693	0.25081158	0.017593183
0.029689731	0.19056898	0.08794278	-0.09042144	0.14693761	0.07705069	-0.09470419	0.07701862	0.096715815	-0.043526717	-0.13559635	-0.07222732	0.11412757	-0.035265934	-0.13847922	-0.0003339774
0.19687772	-0.114553295	0.013677294	-0.047499523	-0.36479568	-0.07240614	-0.10740787	0.079130046	-0.12636428	-0.14226907	-0.11059507	-0.1618129	0.012016373	-0.21027029	0.028827762	-0.15645576
0.211707	0.1422538	-0.11150145	-0.23233	-0.18274896	0.39163932	0.25024933	0.23805384	0.2839234	-0.04763677	0.122554496	0.24108933	-0.00969103	0.26357278	-0.35695615	0.2218366
-0.45118874	0.076464266	-0.37350747	0.30253315	0.033483725	0.30102912	0.15998623	-0.28045577	0.28840235	0.54740703	0.3244083	0.23959082	-0.2886187	0.07499221	-0.09496609	0.13945116
0.013607392	-0.18092021	-0.05220519	0.034459155	-0.5276349	-0.14383663	-0.20101257	0.04399325	-0.40494856	0.18576552	-0.07701827	-0.38651416	-0.028074846	-0.45956725	0.2680118	-0.4373804
-0.19307041	0.02664861	-0.050295092	0.1249951	0.41350305	-0.051019542	-0.027278595	-0.19222775	0.04362842	-0.1318528	0.10769278	0.026429573	-0.13437559	-0.049889516	-0.01924809	0.098987624
0.64202076	0.1556401	0.01777453	-0.5761534	-0.12873788	0.44416687	0.5017008	0.5527179	0.4616946	-0.8124194	0.1677361	0.4644469	0.31335157	0.51909435	-0.46944663	0.53273183
0.10735615	0.08201377	0.22352973	-0.13276531	-0.32796982	-0.015900323	-0.34106436	0.17219073	-0.27493036	0.10930212	-0.24834989	-0.37397978	0.20153564	-0.5062565	0.025439316	-0.4323896
0.07207212	0.095941626	0.39784878	0.058467243	0.3094725	-0.20093028	-0.4951374	-0.0727382	-0.32103497	-0.37280172	-0.43666193	-0.3822371	0.33969903	-0.3567192	0.17752461	-0.33880892
0.33537403	0.40508988	0.38211092	-0.4398847	-0.4956216	0.4399556	-0.24575405	0.4725108	-0.015592605	0.10623462	-0.35741216	-0.31794012	0.40790254	-0.2576503	-0.33083296	-0.37710157
0.058659714	0.06864707	0.008379711	-0.06370688	0.21769533	0.09166367	0.010916922	0.024241636	0.07167148	-0.28624004	-0.0059778574	0.12643987	-0.049751926	0.139131	-0.09221194	0.17225397
-0.4296463	0.037231337	-0.25508404	0.2531164	0.44112834	0.022437576	-0.05738926	-0.2914172	0.06093904	0.11724848	0.23432189	0.16640486	-0.30552894	0.06272567	-0.036856517	0.2118402
0.08778361	-0.26558408	-0.067385316	0.1298096	-0.25501034	-0.21839246	-0.037988022	0.0020239842	-0.2102844	-0.3225296	-0.1159149	-0.16436012	-0.065625	-0.22954895	0.19467646	-0.15500842
0.3731744	0.52616936	0.3890128	-0.50883424	-0.53153056	0.52516526	-0.43695408	0.44054085	0.23824108	0.470409	-0.4398429	-0.42460695	0.37932265	-0.42432684	-0.49600303	-0.3781649
-0.27834266	0.1439466	0.08686717	0.16425143	0.20145303	0.013323618	-0.247794	-0.15359628	-0.05190857	0.2368999	-0.08722317	-0.019860836	-0.028049683	-0.18527237	0.0724086	-0.05808641
-0.3683567	-0.05727665	-0.23597223	0.23951428	0.1877877	0.03187603	0.022683274	-0.31338045	0.12344677	0.23260315	0.21655436	0.13206014	-0.25932974	-0.005255308	-0.026199277	0.11657355
0.0032118792	-0.21805069	-0.09369851	0.11993521	-0.303901	-0.20918474	-0.08619992	-0.07172357	-0.20374745	-0.20143615	-0.15648527	-0.1863928	-0.03416323	-0.16449535	0.1734616	-0.21561354
-0.058127854	-0.21083996	-0.03700208	0.1284024	-0.15733646	-0.18412083	-0.12947229	-0.0888766	-0.21968938	-0.04705834	-0.040193025	-0.19716217	-0.11622138	-0.20822924	0.15608177	-0.16036747
-0.24474367	0.18184271	-0.08308057	0.02602239	0.027697075	0.30095103	0.018415414	-0.077814154	0.20248705	0.2705274	0.07103282	0.14620762	-0.026679603	0.025891252	-0.18220516	0.041864835
-0.32652554	-0.57029206	-0.4713921	0.41729328	-0.7599585	-0.4707532	0.33267415	-0.32397127	-0.34850895	-0.012482066	0.36808327	0.009295194	-0.48078427	-0.31319135	0.47823203	-0.12697737
-0.29173943	0.13100053	-0.21021737	0.18874775	0.12611225	0.31840977	0.17041817	-0.19630334	0.22236852	0.42603457	0.29514048	0.23804158	-0.22828305	0.15479647	-0.24460782	0.20246969
0.42430776	-0.018989569	0.084080026	-0.24378917	-0.35237306	0.119603395	0.17383836	0.27628905	0.14720054	-0.5658166	-0.066654816	0.03488753	0.15561077	0.2633287	-0.12596224	0.21568108
-0.08701901	0.31115013	0.14375904	-0.034912147	0.050718646	0.2869165	-0.19395867	0.019878544	0.12130319	0.31746554	-0.06901599	-0.018320683	0.090716295	-0.034597825	-0.20864621	-0.056728426
0.11778121	-0.08736003	0.060957573	0.027065292	-0.14657375	-0.20191157	-0.2580383	-0.032441214	-0.320565	-0.33207163	-0.25437734	-0.34958264	0.14780888	-0.2597203	0.16524988	-0.26235196
0.3357833	0.08681472	0.13715053	-0.18462154	-0.39224765	0.12053123	-0.019636983	0.21882708	0.07025983	-0.10593015	-0.18834724	-0.072908185	0.1983101	0.009748233	-0.10562456	-0.055588704
-0.20587948	0.10501148	-0.14671952	0.025631804	0.10059095	0.28246635	0.119064786	-0.08633319	0.22086954	0.28315988	0.16934004	0.123219	-0.07234393	0.062296577	-0.22330432	0.11382227
-0.15962312	0.10754464	0.063916214	0.03621844	0.33582354	-0.004292832	-0.23832159	-0.0642082	0.014671091	0.021964343	-0.06369166	-0.020806864	0.050258152	-0.042760313	-0.003927364	0.0013480155
-0.3195815	-0.4455664	-0.58787656	0.4125913	-0.29582652	-0.26556033	0.31927606	-0.32963938	-0.1440908	-0.018216453	0.45926958	0.05574347	-0.57566607	-0.09255017	0.33744228	0.07218023
0.15415266	-0.078256674	0.1778298	0.07606329	0.37008908	-0.24419607	-0.22582093	-0.10526514	-0.23334257	-0.6369913	-0.26538247	-0.20757487	0.030690921	-0.1187649	0.15862358	-0.04475718
0.21310072	-0.18473484	0.027071167	-0.02525336	0.06565735	-0.074637234	0.0067179673	0.06629605	-0.05910069	-0.5882351	-0.0810827	-0.07484648	-0.05298513	0.049318403	0.015836583	0.21019462
0.009342044	0.21710654	0.15572928	-0.026694736	0.28437287	-0.029390456	-0.21016784	-0.06492188	-0.035276044	-0.23290068	-0.22007284	-0.06463322	0.111819245	-0.064036116	0.022748295	-0.01523168
0.3032409	0.2968764	0.24042775	-0.34906	-0.28980887	0.30910987	-0.14430188	0.35401842	0.12280989	-0.15048355	-0.30790743	-0.1930428	0.3195256	0.031051477	-0.31864017	-0.17315342
0.43062115	0.3502295	0.26051545	-0.43395814	-0.4915226	0.504959	-0.14888634	0.4957597	0.20640153	0.17068283	-0.23910189	-0.18438943	0.27412865	0.04068329	-0.5227656	-0.20878007
-0.23232974	-0.3250891	-0.21402228	0.28623015	-0.38301337	-0.2058847	0.062004663	-0.25067872	-0.20793496	0.14484604	0.11129791	-0.10254068	-0.2552988	-0.23213926	0.32858077	-0.16555113
-0.026228556	0.053505044	0.046816204	-0.015327777	-0.3170599	0.08875135	-0.25401217	0.06933158	-0.0638716	0.3218039	-0.096656784	-0.21546529	0.11592219	-0.37126324	-0.016010305	-0.3767534
0.0040731616	0.17103663	0.056048106	-0.13711885	-0.26412037	0.27819836	-0.056807842	0.15533052	0.112863265	0.2876503	-0.027733127	-0.021805272	0.07889194	-0.0823772	-0.23891	-0.12649347
0.09872733	0.18736899	0.14859135	-0.2071649	-0.21871199	0.19941267	-0.09914018	0.18262693	0.07291043	0.18905039	-0.1345929	-0.14169976	0.23172393	-0.09788956	-0.17975731	-0.2105898
-0.19272587	0.07568647	0.04610909	0.08606223	0.14481454	-0.036805715	-0.3058049	-0.071782924	-0.10656126	0.02168091	-0.14187507	-0.1425842	-0.010970378	-0.25475764	0.049858626	-0.15858409
0.6740505	0.20972724	0.108396284	-0.63908625	-0.24190883	0.48771667	0.48608133	0.59283215	0.5097401	-0.7681141	0.13819183	0.4164455	0.38782793	0.5358907	-0.4878244	0.5637344
-0.120164186	0.057698686	0.1485284	0.09984545	0.22688672	-0.23999684	-0.45554578	-0.1086199	-0.27097028	-0.28910685	-0.27527252	-0.2965774	0.12727289	-0.35191354	0.1537662	-0.17524314
0.2323494	-0.018258585	0.19352202	-0.07321188	-0.2576749	-0.0919234	-0.22588693	0.16936806	-0.16449285	-0.2215982	-0.2654085	-0.27908462	0.18198077	-0.13898717	0.05482721	-0.2520847
-0.72730875	0.5874005	-0.59184504	0.635195	0.65187556	0.5517761	0.44477886	-0.6334535	0.5405118	0.72370034	0.5939153	0.5585624	-0.590544	0.4770994	-0.43070042	0.5534812
-0.19311546	-0.06258985	-0.0371175	0.07004466	-0.014606258	-0.11410378	-0.10493907	-0.070479296	-0.10654048	-0.030979238	-0.058446754	-0.18573529	-0.018481761	-0.1503599	0.11507923	-0.16536945
-0.3451565	0.16003628	-0.44628295	0.31844065	0.5158075	0.328936	0.4129205	-0.39035124	0.4185948	0.3285702	0.44377193	0.47150764	-0.42248493	0.52563035	-0.3793112	0.49803367
0.56830114	-0.16907285	-0.34591293	-0.2858289	-0.113641985	0.11985376	0.41554987	0.33621484	0.12090707	-0.805527	0.2980956	0.26596722	-0.19299173	0.42678306	-0.16469032	0.5151311
0.024257706	0.105098896	0.18144657	-0.09347102	0.048598383	0.006539848	-0.18311732	0.0107428925	-0.037017085	-0.082419	-0.19866598	-0.13011846	0.14533785	-0.11432258	-0.08548132	-0.15414932
0.33901656	-0.19624415	-0.10381385	-0.19016396	-0.20191854	0.018788751	0.32321283	0.20999761	0.07238684	-0.6567748	0.053507037	0.13245101	-0.099425785	0.25818393	0.019125037	0.33031386
0.25224936	0.085284814	0.10219838	-0.25907436	-0.34367448	0.21453968	0.0065818722	0.32318714	0.06361358	-0.11803554	-0.09149197	-0.06728797	0.15658629	0.11780903	-0.19716138	-0.055236656
-0.3630327	0.4959614	-0.2820864	0.31005988	0.39977556	0.37669122	0.10418828	-0.3550908	0.25786665	0.42194074	0.3092929	0.3063506	-0.27507174	0.21794277	-0.24040326	0.23610954
0.21307231	0.38489544	0.39727336	-0.25424486	-0.20993912	0.16245355	-0.47970077	0.30204436	-0.18215334	0.14169094	-0.43187496	-0.44327962	0.4007721	-0.48769706	-0.27444944	-0.40860516
-0.17824848	0.3407224	-0.13395801	-0.06311703	0.1620305	0.43929556	0.09995456	0.010357252	0.4791432	0.43512094	0.19440703	0.16099678	-0.013212422	0.24960004	-0.4469851	0.08854028
-0.00051449373	-0.10871801	-0.059448592	0.039210446	-0.053523365	-0.09876893	0.08726426	-0.03502376	-0.116187476	-0.2174518	0.04390587	0.0032909182	-0.098903276	-0.039493505	0.021945046	-0.030154904
0.5586377	0.18841493	0.10637667	-0.49118182	-0.56717575	0.44639462	0.38502592	0.5054869	0.44549948	-0.43422136	-0.092713155	0.13882655	0.26098466	0.40923533	-0.43781933	0.17816179
-0.15155542	-0.11183871	-0.0835368	0.1997335	0.048600744	-0.12379536	-0.06715497	-0.18448183	-0.06846154	-0.035801176	0.051200956	-0.043753956	-0.10407766	-0.11654359	0.07992823	-0.025966004
-0.037215985	-0.37330115	-0.31441855	0.16559434	-0.4975979	-0.20505083	0.25060642	-0.08845766	-0.18262166	-0.31728512	0.20994504	-0.037898645	-0.27996212	-0.1383611	0.21587257	-0.05841433
-0.14196871	0.09844646	0.07399565	0.030981192	0.116478324	0.0014175876	-0.15738972	-0.0367786	-0.068808734	0.16351134	-0.015229982	-0.08195558	0.004634328	-0.21217138	-0.06554893	-0.037057694
-0.11648347	0.061701577	0.36236557	0.12707055	0.3582285	-0.1879209	-0.5252603	-0.19523942	-0.34710494	-0.3934802	-0.4659272	-0.42606094	0.17687424	-0.3878664	0.18446454	-0.29867876
0.0075179725	0.079849534	-0.062312774	-0.045412835	0.025241612	0.18216145	0.056404013	0.020450562	0.20348667	-0.046261996	0.12344646	0.17661557	0.0025739856	0.09808203	-0.18257704	0.100267045
-0.36811185	-0.24386469	-0.1924498	0.26323897	0.07018102	-0.18009093	-0.1038685	-0.29594758	-0.17609158	0.030594483	0.10960407	0.005011365	-0.22241202	-0.20294413	0.23650037	-0.009233489
-0.5609389	0.22419843	-0.54689956	0.47491542	0.41428787	0.3245106	0.3792429	-0.49537587	0.37024236	0.5579711	0.55999404	0.4180562	-0.5409962	0.29351455	-0.25264028	0.40681162
-0.01293683	-0.047583498	0.35731167	0.13806239	0.5522768	-0.31696814	-0.2528952	-0.24409883	-0.3156096	-0.45904732	-0.36585614	-0.27201265	0.1495703	-0.13056485	0.22557008	0.021660946
-0.20669171	-0.035193145	-0.123100415	0.16069838	-0.0033342117	0.03808413	-0.02177915	-0.14737968	0.10535783	0.3870587	0.09990497	0.11826663	-0.14510462	-0.03430293	0.02914375	-0.033317454
0.08394229	-0.07621055	-0.22958465	-0.093866184	-0.1767547	0.28844905	0.34094644	0.11773926	0.33946976	0.03404559	0.20330808	0.26310763	-0.16158147	0.28580078	-0.1951226	0.16423018
-0.27336258	-0.07001101	-0.21647736	0.13734123	-0.035770085	0.15436901	0.19879547	-0.11231104	0.15691364	0.26256326	0.27562502	0.12512536	-0.20082897	0.07984998	-0.07454449	0.09819182
-0.03873426	0.41205126	-0.15203914	-0.11665222	0.33673027	0.43202427	0.12555112	0.08633738	0.3689244	0.04865398	0.13639773	0.25831452	-0.054359917	0.3565006	-0.37188482	0.34853268
0.13539891	0.37385038	0.2893142	-0.16587463	0.21939026	0.13768584	-0.22391988	0.15252867	0.022975344	-0.1557086	-0.272153	-0.12702917	0.26993474	-0.11303906	-0.21059819	-0.14620152
-0.36803326	-0.19110584	-0.2528366	0.33284083	0.0612259	-0.16983032	0.0024164827	-0.41647166	-0.06401116	0.060286485	0.1851445	0.010433006	-0.22678083	-0.11932242	0.22606419	0.081803486
-0.10458052	-0.043501772	-0.14967664	0.08744425	0.28386447	-0.012831605	0.02023338	-0.116862275	0.041092165	-0.26277202	0.14884803	0.13665262	-0.19352753	0.069275506	0.0033773195	0.19687656
-0.11640708	0.057339553	0.20938542	0.13113113	0.3463976	-0.17919613	-0.4010788	-0.15752947	-0.3235804	-0.34318444	-0.37162784	-0.3784323	0.11919335	-0.3725842	0.15440491	-0.21583557
0.042458482	-0.15401223	-0.23702279	-0.017480344	0.1358028	-0.007847424	0.24552372	-0.08768179	0.17189214	-0.23248604	0.2286548	0.22242855	-0.25224224	0.29316658	-0.06271766	0.33093038
-0.48649755	0.1558031	-0.28596827	0.31339774	0.4563157	0.2072425	0.09725085	-0.31899744	0.3159999	0.4024675	0.3612624	0.27956948	-0.3421093	0.21329895	-0.12755318	0.29860687
-0.466067	0.4250634	-0.43695503	0.46955276	0.48150828	0.32778034	0.2815469	-0.43229845	0.41927698	0.5088806	0.40722927	0.40816826	-0.43319023	0.31048933	-0.21641153	0.37505487
-0.17949444	0.2509124	0.09155062	0.074296	0.29846504	-0.040984914	-0.30242255	-0.15799436	-0.08543899	-0.08011648	-0.18742956	-0.07142985	0.019088157	-0.20729837	0.013384234	-0.07304459
-0.03304358	0.20878157	0.030487707	-0.04401866	-0.0619862	0.318234	-0.11874597	0.07803473	0.14133699	0.42001706	-0.035037573	-0.00747863	0.11205029	-0.110376276	-0.23735431	-0.089823514
0.038112517	0.20272335	0.2441621	-0.07833918	0.09045494	-0.05222256	-0.3602213	0.010993084	-0.13477327	-0.20783232	-0.26903924	-0.1976585	0.15690649	-0.21453905	-0.020920975	-0.1072279
-0.41702366	-0.5119965	-0.4932113	0.43647254	-0.49481183	-0.37860486	0.2599981	-0.4012725	-0.37128472	-0.19318217	0.40566635	-0.191162	-0.5049989	-0.44233677	0.40180022	-0.24981225
-0.19960251	0.2769631	0.15849768	-0.040232297	0.09105889	0.10551692	-0.25736114	0.0046606115	0.010582694	0.25394905	-0.19979483	-0.12043598	0.14680353	-0.10287529	-0.07443467	-0.11172186
-0.5547651	0.012052599	-0.25382048	0.38828042	0.014326449	0.025009004	0.009659145	-0.43491822	-0.0003957423	0.3833402	0.23036136	-0.014077558	-0.33422053	-0.07361287	-0.019941697	-0.07712576
-0.0047161346	0.08804879	0.13936922	0.013978668	-0.17925194	0.010554198	-0.1854814	0.041899413	-0.12715825	0.28998306	-0.19032054	-0.20802556	0.08094361	-0.30497944	-0.017694324	-0.23920326
-0.09780624	-0.11751268	-0.10975005	0.10641924	0.14961182	-0.06479264	0.0059638917	-0.18560077	-0.040772155	-0.2229361	0.11623994	0.10126875	-0.15090261	0.044649526	0.06076247	0.19047108
-0.44960117	0.010624623	-0.35206893	0.42759442	0.3612004	0.1108675	0.21401906	-0.49073714	0.17702454	0.2816948	0.33400834	0.24737388	-0.4667884	0.118736796	-0.06150494	0.22562617
-0.22489159	-0.30597028	-0.24814746	0.22988941	-0.26040697	-0.21912067	0.18851298	-0.18172838	-0.15388091	-0.10625953	0.16760707	-0.013178566	-0.29202437	-0.05432582	0.22381894	0.024783667
-0.13728666	0.51239485	0.03625928	-0.093246244	0.23497126	0.40695363	-0.030907916	0.024664326	0.33656043	0.35211533	0.05636782	0.089272685	0.08774041	0.15903516	-0.421007	0.049791463
-0.19213457	-0.023159346	-0.027705433	0.1669129	0.03997438	-0.15783612	-0.24375883	-0.1591267	-0.122109726	-0.065644205	-0.15112405	-0.17863452	0.0041547315	-0.2897523	0.10394264	-0.12659886
-0.11958406	-0.46356997	-0.45598784	0.19894993	-0.3570616	-0.089143716	0.28465816	-0.12709726	0.05049134	-0.053064547	0.33994538	0.11928446	-0.3960982	0.06116459	0.21704264	0.11466972
0.5864754	0.34458008	0.1790403	-0.5442452	-0.19990169	0.405087	0.39036813	0.5244309	0.34315574	-0.62119883	0.016970087	0.32121032	0.4144223	0.4444368	-0.36812612	0.3904971
0.08697518	0.08591433	0.0669298	-0.15312211	-0.035237215	0.07009814	-0.118565835	0.11963098	-0.01870168	-0.13090949	-0.09627543	-0.06924082	0.111095384	0.059809987	-0.07167725	-0.06166567
-0.178276	-0.09675697	0.1925093	0.2158966	0.35508075	-0.27648747	-0.32432806	-0.2752864	-0.3188806	-0.39173555	-0.22553146	-0.2665792	-0.011110006	-0.30573595	0.23918469	-0.25138202
0.23766598	0.24027993	0.22627477	-0.22976397	-0.1400896	0.093116775	-0.2094341	0.24022557	-0.021843359	-0.15013736	-0.26214802	-0.24607885	0.22790352	-0.04075269	-0.19816555	-0.20500307
-0.014948521	-0.18843435	0.14947794	0.11335933	0.29281956	-0.1943411	-0.17933233	-0.197111	-0.2625828	-0.408273	-0.21409991	-0.16395012	-0.0090517	-0.22843325	0.21573381	-0.047241252
-0.40342435	0.18146783	-0.16965933	0.23700568	0.472421	0.1485585	-0.03671137	-0.3256039	0.098155975	0.28627738	0.13833958	0.22004251	-0.14679496	0.03320483	-0.05814504	0.1582356
-0.17294836	0.16163595	-0.040692303	0.010382756	0.11639038	0.20387289	0.06866423	0.028601747	0.22144556	0.22765101	0.1408105	0.20958665	-0.016872546	0.09957545	-0.14667986	0.10084509
-0.221605	0.044179264	0.049550608	0.20805795	0.4125066	-0.1589462	-0.2590897	-0.24487518	-0.14018594	-0.09062629	-0.15652195	-0.120758526	-0.030661188	-0.1945023	0.11903087	-0.08182296
-0.26659697	0.35026333	0.20904888	0.027650015	-0.10578613	0.105274744	-0.4184772	0.011547503	-0.14886455	0.50788456	-0.23060216	-0.29003817	0.19511223	-0.3207545	-0.074314326	-0.33152887
0.17410493	0.035586745	-0.042897172	-0.13512099	-0.29214838	0.10112353	0.090053014	0.15641162	0.10279334	0.13629736	0.08475489	0.0073288945	0.022489645	0.01517038	-0.103412755	-0.007145158
-0.15302454	0.21945289	0.07226775	-0.012730178	0.00024603683	0.15375037	-0.26395425	-0.01018233	0.02119893	0.2806057	-0.1310651	-0.13247842	0.1407341	-0.27139047	-0.10453004	-0.16265792
0.38693812	0.44412905	0.41087946	-0.41356906	-0.36185536	0.46468025	-0.3023592	0.44501188	0.111595444	0.23425384	-0.37210092	-0.305187	0.34542686	-0.13494864	-0.46351263	-0.2517275
0.21409635	0.37843093	0.29339677	-0.25491127	-0.13459016	0.21373151	-0.31799623	0.22739613	-0.051908463	0.14297293	-0.33184406	-0.27890116	0.2678003	-0.23708978	-0.20555884	-0.22537315
0.0848635	-0.18280503	-0.06036091	0.064688645	-0.24090846	-0.13568123	-0.043359686	0.0013738383	-0.19248278	-0.39676228	-0.025526043	-0.10437279	0.0019877146	-0.11613546	0.10865982	-0.06607462
0.3793112	0.38709834	0.43191713	-0.42734486	-0.21477348	0.34687084	-0.20839575	0.41196018	0.09988959	-0.16633655	-0.3229697	-0.32389656	0.39161566	-0.009832338	-0.32897866	-0.20606002
-0.47150877	0.22269149	-0.43187138	0.49065006	0.5036937	0.31854707	0.38039118	-0.48221815	0.4456764	0.5058499	0.49575534	0.44397742	-0.4333298	0.34198162	-0.21685134	0.4522403
-0.17666268	-0.046061177	-0.07899342	0.17799841	0.012237076	-0.17109235	-0.15184286	-0.17373326	-0.109552115	0.06996373	-0.01020429	-0.060732577	-0.09002556	-0.21188115	0.131691	-0.14249215
0.4051117	-0.309702	-0.2097887	-0.1703202	-0.682095	-0.054166198	0.29987594	0.22940367	0.020206435	-0.56136656	0.14594232	0.054772	-0.07232239	0.1191588	-0.03072053	0.11926271
-0.27826568	-0.17438023	-0.31352368	0.18160829	0.16763219	-0.020216031	0.18275066	-0.2801469	0.0826575	0.0034730774	0.28220972	0.21575361	-0.28041407	0.12950368	0.038464576	0.20941748
0.09335917	-0.13624455	0.17009565	0.044017345	-0.03864678	-0.17293392	-0.25137255	-0.0748551	-0.27977303	-0.2771643	-0.30710572	-0.32356733	0.065752186	-0.19777493	0.16898495	-0.21441357
-0.50656176	-0.19539331	0.13073571	0.4663587	0.7261049	-0.53725076	-0.4629912	-0.53685963	-0.5297063	-0.52326417	-0.30780676	-0.26593775	-0.1582256	-0.52327687	0.53403246	-0.094358005
-0.31256998	-0.38650024	-0.43826902	0.27669948	-0.4744126	-0.290293	0.3379836	-0.30535683	-0.19676849	-0.2737131	0.44268656	-0.053206086	-0.44910616	-0.2502665	0.35442847	-0.10190075
0.11294618	0.3229878	0.18380524	-0.26026416	-0.01071677	0.30521363	-0.05147633	0.1694671	0.14935389	-0.01671388	-0.108405374	-0.07611699	0.21909298	0.084962055	-0.24761465	0.019391304
-0.08036774	0.034442917	0.01177493	-0.046834245	-0.11175794	0.16652827	0.009738243	0.033334613	0.14800483	0.26463878	-0.0014365558	0.035233457	0.020633008	-0.05209992	-0.08461316	-0.045227252
-0.32122058	0.042240094	-0.3704338	0.18733321	0.4563679	0.17682597	0.25738445	-0.27899352	0.29837343	0.2362447	0.4095556	0.4730113	-0.38464302	0.31168833	-0.15447879	0.39948273
-0.107677646	-0.2034901	0.01735968	0.13282442	-0.13814029	-0.14146791	-0.076098286	-0.13575844	-0.21629004	-0.120233804	-0.06358257	-0.15315975	-0.0058068475	-0.20474541	0.15546241	-0.08906073
-0.0448647	-0.23979062	-0.13795458	0.05184185	-0.49142957	-0.14638136	-0.055369604	-0.06756456	-0.19862147	0.09056384	0.05107913	-0.17528296	-0.11118196	-0.2909709	0.124844074	-0.22366557
0.089915834	0.25686696	0.13189596	-0.17073818	-0.09841103	0.20784865	-0.1408998	0.13327566	0.09817727	0.1174239	-0.14884827	-0.044642746	0.120787695	-0.025885867	-0.18448378	-0.1602655
0.073348634	-0.4123833	-0.5015471	0.17462224	-0.40353012	-0.209965	0.32955053	-0.14530359	-0.096510485	-0.47770184	0.42682248	0.075510964	-0.48432213	0.02622513	0.18120416	0.13218786
-0.0407352	-0.17117351	0.28310955	0.10691502	0.06621262	-0.27883205	-0.416982	-0.1861435	-0.3958224	-0.4368642	-0.4185139	-0.43584913	0.12507933	-0.3260355	0.27455074	-0.3744909
-0.0120956525	-0.36177084	-0.436481	0.13330892	-0.14185922	-0.09058603	0.30829686	-0.11855328	0.04878408	-0.16924728	0.35930213	0.120251864	-0.3443003	0.11179693	0.088409215	0.198513
-0.27451035	0.17221062	0.3980896	0.19315252	0.6494669	-0.26594776	-0.59072596	-0.31789657	-0.41130424	-0.4055875	-0.48990402	-0.45453238	0.1887536	-0.4216044	0.23217225	-0.31400266
-0.18203993	0.1612354	0.60446364	0.23328082	0.65284973	-0.3752	-0.6726292	-0.32126632	-0.5224439	-0.5702551	-0.6795485	-0.6146011	0.42830887	-0.57282346	0.32155004	-0.56074625
-0.32319003	-0.41965294	-0.49013016	0.35336182	-0.5098187	-0.36860687	0.2806508	-0.26771876	-0.29272243	-0.19123201	0.42236954	0.06323316	-0.41465172	-0.12568979	0.32326055	0.039465565
-0.15420675	0.28942344	0.26368624	0.0770924	0.4707449	-0.11282818	-0.52132255	-0.23067477	-0.24059513	-0.08469351	-0.36727327	-0.29283413	0.19807164	-0.37062654	-0.0011587661	-0.22270933
0.17347732	0.27566355	0.3163362	-0.21165341	0.19252154	0.08355311	-0.21853548	0.14887133	-0.008219918	-0.4391137	-0.34247765	-0.1350955	0.2961391	0.09320575	-0.16730547	0.050121147
-0.11714954	0.17342788	0.20762861	0.0726488	0.41921964	-0.041721534	-0.23004287	-0.098413944	-0.073052205	-0.09750449	-0.1936515	-0.12842432	0.026001586	-0.11299656	-0.0014639362	-0.022615211
0.0125479605	0.051516443	0.21100675	-0.050136376	0.15588103	-0.092973314	-0.37723884	-0.05166644	-0.28109038	-0.43825653	-0.2705712	-0.3213305	0.14449523	-0.23508227	0.11928833	-0.18818149
-0.24699326	0.146174	-0.054427173	0.023452569	0.115877464	0.27206078	0.030013409	-0.08087255	0.19038163	0.37137708	0.18084106	0.12250682	-0.078662395	-0.019623235	-0.1214444	0.0036085574
0.364179	0.30276433	0.24593416	-0.40346253	-0.5084473	0.46782038	-0.18047951	0.44910255	0.28368208	0.3817591	-0.26737604	-0.20715454	0.2675911	-0.10524646	-0.46230555	-0.23042925
-0.23245092	0.17363362	-0.30805433	0.054814275	0.37367114	0.34287903	0.30274516	-0.17799743	0.372013	0.19461875	0.38528907	0.34885025	-0.3360589	0.36274496	-0.29585543	0.40485394
-0.3166456	0.35095084	-0.3443635	0.054945324	0.33120355	0.35035133	0.23836115	-0.18625177	0.42859507	0.3908695	0.34766886	0.35267177	-0.2704445	0.31193992	-0.2812801	0.3210628
-0.14259045	0.63018584	-0.14453745	-0.23086315	0.28388575	0.47859254	0.16539061	0.14094204	0.4404353	0.33685306	0.18732835	0.31308243	-0.025944356	0.35102484	-0.510952	0.25329748
0.14816947	0.2033562	0.25577977	-0.050794978	0.14863844	-0.07961584	-0.2810129	0.04642661	-0.14685822	-0.36721393	-0.2834136	-0.17703839	0.15059215	-0.096949555	0.016873565	-0.16024217
-0.16561708	0.28505293	-0.14482881	0.006082894	0.07341579	0.38769546	0.1411865	-0.013963798	0.40588236	0.3348461	0.20066673	0.2666209	-0.12117124	0.29898405	-0.3927388	0.18696596
-0.2890956	0.13060527	0.026072089	0.12604913	0.23964363	0.079991795	-0.18005115	-0.19326447	0.062086836	0.3047626	0.067549415	0.061043903	-0.023866111	-0.1661361	0.0013402146	-0.00052325183
-0.04995222	-0.08395397	-0.18158561	0.12856548	-0.14420956	0.011306141	0.067108944	-0.050992537	0.008916496	0.07438633	0.09808634	0.03133827	-0.106978334	-0.0020783518	-0.026354985	-0.019948326
-0.13666745	-0.06101559	-0.11575933	0.0741413	-0.21228369	0.091763765	0.09684737	-0.0025692286	0.047729626	0.17529637	0.122540906	0.012979855	-0.120121196	-0.048394512	0.028634794	-0.0903911
0.01363187	0.22465381	0.16976854	-0.09224131	0.24473932	0.01749698	-0.2291914	0.064966775	-0.09362407	-0.22697413	-0.21588613	-0.20215656	0.19370042	-0.073905475	-0.041874513	-0.05467666
-0.41835865	0.2704912	-0.26262656	0.13182244	0.20772393	0.42486188	0.1252252	-0.160978	0.36532974	0.5870532	0.24143526	0.28315383	-0.14083245	0.17868614	-0.317084	0.17365313
-0.26862603	-0.359038	-0.32508987	0.33981806	-0.1377606	-0.29468563	-0.06441871	-0.34859022	-0.27368525	-0.34893525	0.056333452	-0.18705189	-0.35516036	-0.24531452	0.3771584	-0.09774967
0.10992041	0.18129167	-0.01808678	-0.263615	-0.070635915	0.30303267	0.21443693	0.28262162	0.30631462	0.09300222	0.06405723	0.15866768	0.13868472	0.28110313	-0.35322574	0.15584658
0.43479022	0.57506496	0.49514353	-0.44515035	-0.53354496	0.49559158	-0.41672254	0.49468783	0.04911224	0.23687594	-0.5614475	-0.46020827	0.46701556	-0.28781357	-0.483655	-0.4430402
-0.092912845	-0.1711449	0.031790167	0.22927704	0.04131614	-0.23787758	-0.25710127	-0.22246797	-0.32232484	-0.2624455	-0.21374506	-0.2374478	-0.03738963	-0.30834407	0.217327	-0.17675397
-0.17779802	-0.18789202	-0.06256728	0.160531	-0.33650964	-0.16807549	-0.2045513	-0.07178926	-0.27071851	0.2054345	-0.054539125	-0.21294041	-0.022156239	-0.398354	0.27372116	-0.24067561
0.54263407	0.5343323	0.47532266	-0.6021914	-0.5673892	0.76010174	-0.3236973	0.57398444	0.29195634	0.47580987	-0.39042222	-0.29433995	0.4322511	-0.16411719	-0.69121075	-0.34279492
-0.27619103	-0.16429846	-0.11566491	0.21997839	-0.20062502	-0.23791713	-0.14166449	-0.20406163	-0.23562405	-0.004792178	-0.0011585947	-0.24156408	-0.09974828	-0.42624694	0.2534793	-0.23625758
-0.31231228	0.14757928	-0.321567	0.14487343	0.34095255	0.3265573	0.34850508	-0.26609716	0.3580506	0.26933265	0.3911449	0.37107673	-0.35508502	0.25498086	-0.17948015	0.35711488
0.48550263	0.15723695	0.18684305	-0.46627942	-0.42422217	0.24898864	-0.044975355	0.42060465	0.14671822	-0.28428692	-0.25018626	-0.15697286	0.2612443	0.09258432	-0.27177915	-0.14170766
-0.052020706	-0.2713344	-0.11366928	0.18870534	0.009736957	-0.23030666	-0.07157304	-0.16603352	-0.2972603	-0.46737346	0.021580147	-0.108411804	-0.18802781	-0.13546872	0.24777791	-0.056089435
0.62813133	0.080000974	0.21073182	-0.4410879	-0.43047604	0.24167293	0.2516829	0.48157504	0.2183796	-0.72049904	-0.115244254	0.19532815	0.4903149	0.3522701	-0.33466092	0.29235023
0.06090181	0.19111985	0.2195236	-0.16170476	-0.16371562	0.09278524	-0.32110238	0.15446706	-0.051814836	0.18847859	-0.22628419	-0.2176187	0.16048442	-0.28760362	-0.079204634	-0.21387197
0.12726931	-0.17542014	-0.099321045	-0.100526966	-0.34129563	-0.021705834	0.18811302	0.12553136	-0.019043896	-0.24333559	0.07796873	0.031570114	-0.09341819	0.028130999	-0.002904948	0.06070014
0.10974881	-0.2232969	-0.20354396	-0.0061986595	-0.38514563	-0.056029785	0.15444346	-0.021009577	-0.044154424	-0.18406598	0.120586805	0.002482645	-0.13694975	0.012924107	0.14198232	0.035702553
0.21024977	0.46693712	0.19694301	-0.2731944	0.3642323	0.26683602	-0.0011009353	0.2166781	0.21622431	-0.36133313	-0.17345114	0.10585321	0.18735331	0.24112347	-0.31738102	0.2455577
0.21708755	0.3035447	0.17473313	-0.2924194	-0.4284949	0.49892458	-0.055580825	0.31147817	0.26716432	0.5186007	-0.1423378	-0.07737233	0.16297224	-0.080148704	-0.42196596	-0.14787538
-0.28719056	-0.18402304	-0.3715619	0.2954056	0.18869095	-0.07982035	0.2997186	-0.2992367	0.14639209	0.056247823	0.36910686	0.3232328	-0.38451195	0.19313231	0.06827091	0.23838349
-0.44389313	-0.47846654	-0.44159374	0.39026862	-0.59816617	-0.37823358	0.278532	-0.3614903	-0.3106701	-0.16780461	0.39399818	-0.10900798	-0.504994	-0.29250446	0.4589608	-0.19671558
-0.4454563	0.09009193	-0.30943686	0.521936	0.42735583	0.15330924	0.1563677	-0.48243493	0.1706412	0.32396927	0.32852817	0.26049134	-0.30822942	0.14280678	-0.05785195	0.2640936
-0.32388723	-0.25679833	-0.1979651	0.36994314	0.20962475	-0.28167716	-0.060665008	-0.33209243	-0.28257403	-0.23060186	0.09387001	0.010658914	-0.22093314	-0.24771996	0.25174826	-0.027514474
0.14773913	0.1794106	-0.00575734	-0.27792647	0.22424135	0.25508857	0.16986509	0.1839076	0.21054128	-0.2717506	0.056322847	0.14209352	0.066799626	0.3488229	-0.25010377	0.30575192
0.068744056	0.18558553	0.1103729	-0.15821667	-0.11840946	0.14775018	-0.118811175	0.15726557	0.021419236	0.091972075	-0.15068927	-0.058555935	0.14088657	-0.039279506	-0.17851448	-0.078140475
0.10785216	0.29405388	0.35423788	-0.11758639	0.19462526	0.023275368	-0.4254775	0.058484346	-0.23150505	-0.3187327	-0.4511443	-0.3373563	0.23801652	-0.22232279	-0.10994202	-0.19670133
0.2982065	-0.39948875	-0.3231173	-0.14951655	-0.54983914	-0.039364893	0.49674705	0.15183383	0.013283522	-0.61750984	0.28314984	0.1839366	-0.22551145	0.20637165	0.019656809	0.2794888
0.058853325	0.07125361	0.07213304	-0.10474305	0.19104892	0.0011347907	-0.16516906	-0.0070774104	0.030374141	-0.19972295	-0.182955	-0.061589118	0.12416801	0.022373965	-0.108957924	-0.010666826
0.21485037	0.60380054	0.40037787	-0.3924087	-0.24732038	0.5095773	-0.16038099	0.34610236	0.2504168	0.20421146	-0.3535205	-0.15778676	0.39592633	0.0372663	-0.5088894	-0.22337438
-0.08490071	-0.31017962	-0.36404133	0.19468568	-0.391959	-0.11591958	0.35588133	-0.06971464	-0.14081691	-0.2836345	0.26796556	0.021169905	-0.29609463	-0.07659553	0.13372752	-0.06643531
-0.36046183	-0.29132205	-0.3608139	0.3516783	-0.06824326	-0.16672708	0.02580831	-0.34741315	-0.060789037	0.12847765	0.20753485	0.013474747	-0.31860563	-0.18460856	0.2694519	0.03863045
0.1883164	0.04739021	0.3661279	0.029906362	0.7464941	-0.2834379	-0.25601128	-0.1056206	-0.24721596	-0.76174754	-0.4177603	-0.15110186	0.21144822	-0.009795856	0.14367971	0.15379302
0.26389024	-0.14563702	-0.06783398	-0.18524086	-0.24234104	-0.0009708456	0.19726034	0.20115557	0.034331076	-0.35997036	0.11777999	0.03683121	-0.05373856	0.14916158	-0.056085244	0.14181444
-0.004232362	0.0137494	0.30896908	0.023687815	0.05439529	-0.24176942	-0.4714988	-0.0751039	-0.387752	-0.34348392	-0.46465668	-0.48956004	0.24822295	-0.48194987	0.21189289	-0.4111542
-0.023521438	0.072921485	0.14364338	-0.033380024	-0.14960775	-0.10841113	-0.29227164	-0.009544141	-0.35863936	-0.023490977	-0.20572259	-0.32248026	0.10864253	-0.47328544	0.13768414	-0.3563616
0.01421419	-0.058887668	0.017506348	-0.008073277	-0.2181509	-0.14880326	-0.20348682	0.036275756	-0.2993394	-0.048827868	-0.16742992	-0.24452464	0.02928093	-0.40459207	0.11924559	-0.1952027
0.28968123	0.32310915	0.18178646	-0.37409973	-0.2785973	0.3276502	-0.06732211	0.3585444	0.20649156	0.0769775	-0.22813796	-0.107536614	0.19600557	-0.0143826045	-0.33626106	-0.121828124
-0.09514956	0.10787804	0.34885857	0.075062	0.3478907	-0.20392425	-0.42009553	-0.16259712	-0.21866173	-0.29526868	-0.34679034	-0.320945	0.1469805	-0.30233967	0.18244296	-0.1898789
-0.38099763	0.29400054	-0.3094978	0.26443538	0.2781254	0.31516755	0.19708064	-0.3348194	0.27533245	0.46872455	0.33657408	0.23441508	-0.26590165	0.23548229	-0.24182859	0.267776
0.30703232	-0.1273939	-0.054735724	-0.25173405	-0.49409896	0.10886626	0.22914672	0.2636173	0.07804532	-0.31312996	-0.006526091	-0.085001014	0.095132984	0.038274236	-0.11719358	-0.05057816
0.23558113	0.055505525	0.1912465	-0.19482376	-0.12579122	0.094490305	-0.1326792	0.16391256	-0.019592732	-0.25407094	-0.18393397	-0.10346184	0.17137738	-0.011416685	-0.09753021	-0.055123948
-0.11588099	0.28506374	0.07817242	0.018896312	0.5247236	0.039922345	-0.18516682	-0.116964616	0.027480228	-0.14450176	-0.12780873	-0.0070089893	0.123779945	0.050770063	-0.12739861	0.0914292
0.31527895	0.3698621	0.32283515	-0.38248047	-0.39468014	0.41356203	-0.26615518	0.3759196	0.19953687	0.36585632	-0.2665364	-0.29931435	0.3182351	-0.1438252	-0.31972247	-0.31449902
0.106945075	0.11262878	-0.07465419	-0.14507863	-0.008807916	0.21126808	0.15656352	0.16610514	0.22423835	-0.012239772	0.15574871	0.18372844	-0.012370294	0.22825232	-0.18565917	0.11591649
0.6398898	0.38597658	0.26444903	-0.5966179	-0.35000676	0.52455765	0.46337214	0.51601976	0.45105672	-0.5869452	-0.11900378	0.37842715	0.52316374	0.49536768	-0.46757904	0.502837
-0.30785832	-0.5585104	-0.62559825	0.4680487	-0.62832797	-0.41448835	0.35312054	-0.38036916	-0.34081867	-0.31246707	0.44908077	-0.07803866	-0.55770206	-0.27844137	0.45208305	-0.18985593
0.11839668	0.1688873	-0.067012124	-0.15638463	0.17060326	0.18215443	0.09952158	0.15626225	0.16822547	-0.17985377	0.08508232	0.15098816	0.057778053	0.20404105	-0.18900314	0.2051943
0.0315393	-0.007342764	0.11338451	-0.016241774	0.07728523	-0.15750317	-0.17939049	-0.009172344	-0.13439736	-0.20278162	-0.13884859	-0.15215069	0.06556662	-0.11441077	0.14807354	-0.13876976
-0.1412632	-0.07833847	-0.08234925	-0.020285305	-0.27045164	0.033278972	-0.033326223	0.043057777	0.029815856	0.23212226	0.06887767	-0.06482862	-0.0214848	-0.12278534	0.11271348	-0.08939884
-0.47182015	0.08811847	-0.097258866	0.47968933	0.4955574	-0.114895694	-0.13949525	-0.43486118	-0.033562943	0.20452091	0.08746595	0.10744136	-0.2319283	-0.2053965	0.13062538	0.093091846
0.10294607	0.015967464	-0.09160858	-0.07203102	0.106629975	0.043180455	0.13939196	0.028916873	0.12616621	-0.31549963	0.05809456	0.15678246	-0.096506566	0.23314607	-0.05457599	0.16201717
-0.12841634	-0.1873346	-0.13188653	0.21179183	0.0606811	-0.2925301	-0.22519957	-0.2439605	-0.40534806	-0.4460751	-0.11648864	-0.25747326	-0.14730854	-0.36252287	0.2133008	-0.16407026
0.11553545	0.07295198	-0.044621553	-0.19553065	0.090678394	0.103831604	0.09422103	0.14656423	0.08909738	-0.2108225	0.008490136	0.06910934	0.050998658	0.17023998	-0.17758887	0.10727138
0.3412809	0.30475214	0.2706318	-0.31236577	-0.43609485	0.25851646	-0.14681974	0.38784412	0.08690005	0.17143777	-0.31439996	-0.21151751	0.3128473	-0.16585143	-0.28621426	-0.25939706
-0.12866965	0.17251578	0.058400676	0.020931333	0.4570478	0.02859182	-0.20147666	-0.07997658	-0.052994907	-0.111907125	-0.04484858	0.043250013	-0.060881346	-0.027586108	-0.011750743	0.05634199
0.09507579	0.088544905	0.09238682	-0.14919505	-0.54951745	0.043773115	-0.18688509	0.15186462	-0.16009608	0.35243165	-0.17911834	-0.331483	0.09538316	-0.31052247	-0.028278945	-0.32689482
-0.23732351	0.0067615258	-0.23427874	0.16315262	0.19997254	0.074604936	0.14774121	-0.19231434	0.16566405	0.17093639	0.21316671	0.18154842	-0.17620844	0.03878428	0.010490904	0.1968573
0.010630845	-0.06598109	0.27020812	0.12569104	-0.021259893	-0.30812007	-0.47984532	-0.08608544	-0.38536602	-0.3559913	-0.38262674	-0.51446146	0.089885525	-0.4171795	0.24295424	-0.3690211
0.23575191	0.16217744	0.2070436	-0.18152906	-0.09791568	0.12391607	-0.13429075	0.20625418	0.053181738	-0.10839363	-0.24073705	-0.073813885	0.18263276	-0.0063823094	-0.081230536	-0.09283649
0.15656792	0.54165477	0.45019072	-0.31926882	0.07141292	0.30261588	-0.40290567	0.23778379	-0.0651124	0.044397056	-0.4061854	-0.31693718	0.40958104	-0.212506	-0.2615802	-0.27332664
-0.0851425	-0.2615345	0.06747857	0.17667846	-0.27402696	-0.30172023	-0.14327335	-0.1810935	-0.3357252	-0.12479412	-0.120509826	-0.25319028	-0.04969627	-0.33513927	0.26212826	-0.28254205
0.03921804	-0.2704687	-0.13291411	0.09607427	-0.27210236	-0.19968794	0.098519	-0.102905385	-0.19549714	-0.41208896	0.046125945	-0.054734867	-0.16303648	-0.052309703	0.17487945	-0.044775
0.3944665	0.06612813	0.12112933	-0.28137913	-0.18494202	0.18806249	0.16990651	0.29013094	0.16990001	-0.5627948	-0.10194677	0.002081094	0.16849127	0.26629364	-0.24714865	0.16353486
-0.08826074	-0.29808217	-0.30153522	0.19518736	-0.47930893	-0.1408469	0.13655387	-0.15282026	-0.19871059	-0.11072778	0.116866924	-0.199902	-0.2754561	-0.30904108	0.2228361	-0.25617108
-0.15091123	0.10730073	-0.23004454	0.04447297	0.066444196	0.27176186	0.16731359	-0.00888473	0.30291525	0.3078145	0.2780484	0.26142177	-0.19954708	0.28099748	-0.26024032	0.23468082
0.077118985	-0.06977125	0.10601669	0.057857513	0.4119863	-0.16867973	-0.15845865	-0.13776705	-0.14659993	-0.47317997	-0.15727174	-0.045125797	0.024374897	-0.06613734	0.11824785	0.097268514
-0.0270004	-0.022501629	-0.22168596	0.021717189	0.40039816	0.06698298	0.16554956	-0.10077106	0.1252019	-0.35622597	0.24137343	0.20049514	-0.17044078	0.1835613	-0.0666315	0.25493452
-0.18547274	0.10519829	0.06077059	0.20136906	0.36508223	-0.10984858	-0.39255044	-0.26573864	-0.11955812	-0.109191984	-0.20484982	-0.11017066	0.018650945	-0.20700409	0.08765444	-0.08463125
0.5547125	0.1608229	-0.028561182	-0.50517267	-0.28337973	0.38152558	0.29885477	0.44591624	0.29649675	-0.5739007	0.14473844	0.25123876	0.18573834	0.3525201	-0.39889517	0.2870967
0.02086893	-0.02074915	0.17220207	0.13236724	0.22838071	-0.22361894	-0.30195272	-0.12892751	-0.29621387	-0.3271731	-0.302655	-0.24471736	0.12891264	-0.16736138	0.21494593	-0.10674381
-0.51805323	-0.65626293	-0.7343197	0.59719735	-0.73868454	-0.4939471	0.5069763	-0.5465895	-0.38947758	-0.21909685	0.6193388	0.030817881	-0.6671293	-0.29092085	0.6042548	-0.10667513
-0.43235475	-0.07351342	0.2369192	0.3721453	0.5558352	-0.4333279	-0.463392	-0.45523372	-0.38084248	-0.39640036	-0.34651768	-0.3617376	-0.058568873	-0.3208829	0.33867735	-0.23199576
-0.46329492	0.31391126	-0.35225448	0.37241438	0.38408232	0.33916053	0.13095528	-0.36113888	0.2727175	0.5903161	0.3822213	0.25702178	-0.3144389	0.19566408	-0.22236726	0.1966762
0.010526256	-0.13619488	-0.06842092	0.04758102	-0.24887486	-0.050121635	-0.08806809	0.00433203	-0.002766898	0.010315825	-0.051153768	-0.14054863	-0.036368303	-0.11168384	0.028167957	-0.18914968
0.32710895	0.34369096	0.33820644	-0.33636868	-0.28647503	0.28802338	-0.35959807	0.31007722	-0.0036253016	0.16751496	-0.4476427	-0.37322316	0.3332643	-0.37797815	-0.26569977	-0.35188982
-0.2897787	-0.32032493	-0.28785616	0.247116	-0.24460481	-0.19382927	0.06429588	-0.2159646	-0.16531475	-0.2509439	0.2534906	-0.048814394	-0.2933499	-0.08719311	0.28450626	0.018912643
-0.23016872	-0.2258768	-0.20091972	0.25217402	0.17389296	-0.2326237	-0.07935956	-0.35311413	-0.1566479	-0.15212157	0.0164547	-0.030922282	-0.2557366	-0.1614192	0.21446505	0.018620891
-0.1569963	0.13708764	0.2128275	0.13632822	0.2627328	-0.1560755	-0.45669428	-0.15834953	-0.23974021	-0.076789565	-0.23195122	-0.23026334	0.1613229	-0.37378618	0.05697716	-0.25139564
-0.29798475	-0.093214326	-0.06882647	0.24144512	0.34997085	-0.23622806	-0.29736155	-0.28352892	-0.14843233	-0.12192523	-0.016682815	-0.06963806	-0.16216597	-0.2703076	0.16579555	-0.030650925
0.29546887	-0.1831715	-0.25363243	-0.24761705	-0.20591502	0.14866215	0.36235398	0.28076234	0.21058026	-0.6108826	0.25155097	0.29070908	-0.05515188	0.31953093	-0.18336838	0.31219602
0.48208377	0.4971624	0.37532207	-0.43000805	-0.47734714	0.43082508	-0.15419531	0.48896855	0.14303403	-0.045109127	-0.42003638	-0.2962838	0.4099334	-0.0051648575	-0.39017886	-0.2086175
-0.02056273	0.018918071	0.08592498	-0.020801162	0.13041165	0.0654475	-0.077320345	0.008629345	0.007178601	0.026168825	-0.056655247	-0.08472117	0.060881026	-0.07170614	-0.08821884	-0.007370715
-0.29795444	0.104503036	0.382543	0.217345	0.4167154	-0.21299101	-0.42697904	-0.26061943	-0.30562946	-0.3106496	-0.4579522	-0.3340279	0.14161068	-0.3255153	0.18064196	-0.179742
0.0342651	-0.55243784	-0.53049016	0.3247442	-0.5880573	-0.4706597	0.26164374	-0.2280185	-0.33763522	-0.61686856	0.3213793	-0.18634094	-0.5183121	-0.19368882	0.3904289	-0.05647468
-0.12538029	-0.27331397	-0.30418894	0.0735103	-0.44029668	0.011533258	0.35294828	-0.043675587	0.14122196	0.03892835	0.36060414	0.26237032	-0.28752527	0.1101993	0.13557671	0.15629223
-0.104957655	0.34543997	0.14016461	-0.1044893	0.20906577	0.24049915	-0.09353711	0.006860224	0.15777847	0.2541114	-0.077625446	0.003623498	0.054592036	0.021357931	-0.21250388	0.026130987
0.06636278	0.30693212	0.13187103	-0.21030349	-0.268933	0.32064003	-0.22210968	0.19631681	0.23757863	0.32297593	-0.16513729	-0.1489256	0.14460462	-0.0866947	-0.24908017	-0.19587861
-0.04060069	0.41980153	0.092469275	-0.23173584	0.032546364	0.4775125	-0.00735529	0.14335364	0.3233779	0.3256499	0.03424137	0.0885728	0.12039952	0.13454136	-0.42183402	0.000787991
-0.02463925	0.22463669	0.20165391	-0.061393272	-0.094360895	0.17659722	-0.28114134	0.11544269	0.107062325	0.35780352	-0.1691295	-0.18686716	0.12978175	-0.16907611	-0.12678747	-0.2495062
-0.13309787	0.18524763	-0.27371192	-0.12206324	0.10536723	0.36049667	0.30373812	0.07895572	0.44564328	0.18871944	0.33067846	0.38127476	-0.14316483	0.33361527	-0.313204	0.37330323
-0.48844627	-0.534778	-0.6567319	0.4846843	-0.6522298	-0.4903224	0.3935412	-0.43932205	-0.3195087	-0.18891622	0.5655507	-0.008881991	-0.59113336	-0.34135067	0.44904858	-0.13840774
-0.030488634	-0.017180659	0.09807522	0.048727237	-0.21483824	-0.14733346	-0.30422208	-0.049011283	-0.2639916	0.060866162	-0.18979076	-0.27662635	0.085984364	-0.40524068	0.14060052	-0.24039097
0.6452735	0.26363766	0.016507395	-0.5616906	-0.12503871	0.45217463	0.47944903	0.5332811	0.5358927	-0.68669736	0.14931338	0.50453514	0.37805662	0.57445514	-0.47758487	0.52789664
-0.16954581	0.060133755	0.19158475	0.06920893	0.16865392	-0.14877771	-0.32920828	-0.10186828	-0.20798004	-0.1305371	-0.2316797	-0.24554165	0.08451375	-0.26881465	0.08225549	-0.15499794
-0.34491906	0.21803394	-0.2278723	0.19681786	0.33847818	0.23982377	0.057791047	-0.2692438	0.24859318	0.2622406	0.24019782	0.23641977	-0.22195728	0.13545495	-0.17429414	0.23610984
0.023429606	-0.10694318	0.005808825	-0.00030461836	0.21752186	-0.11058458	-0.048292052	-0.103484616	-0.07727184	-0.3783932	-0.09373248	-0.008367446	-0.03494041	0.026866827	0.055023625	0.030013628
0.40676668	0.5384763	0.44306943	-0.5022084	-0.4901517	0.5830851	-0.31907845	0.45439178	0.35815477	0.50951874	-0.36804876	-0.31192365	0.392397	-0.17664184	-0.51365113	-0.34027404
-0.1245517	0.0029991125	0.35791624	0.11372626	0.30524394	-0.27041507	-0.5020565	-0.15996121	-0.34464175	-0.25756764	-0.4824585	-0.40473533	0.14985225	-0.37265024	0.21833076	-0.35233912
-0.490782	-0.092732534	-0.0036226418	0.49627137	0.6356269	-0.2741618	-0.30818683	-0.5063268	-0.19003452	-0.061549556	0.013236957	-0.0277583	-0.26333225	-0.23937553	0.22516857	-0.019919593
0.26238802	-0.04139028	0.21997355	-0.1525455	-0.048829265	-0.03917746	-0.13382253	0.0754957	-0.1483498	-0.50804496	-0.25999913	-0.2732181	0.19474377	-0.0573571	0.044739008	-0.13183366
-0.013096068	-0.032635912	0.13494302	0.07595325	0.17574283	-0.24058396	-0.3505654	-0.07861992	-0.3107125	-0.45252427	-0.29508516	-0.27425036	0.13728021	-0.3056409	0.2479699	-0.20038334
-0.08618543	0.31264624	-0.08155707	0.012295656	0.33409682	0.37498882	0.14022808	-0.036517527	0.33088267	0.24600492	0.10094092	0.24149144	-0.07198647	0.29036108	-0.32030222	0.30466992
0.015543987	0.012932759	0.03821795	0.0022594337	0.023194188	-0.06145936	-0.17318527	-0.059519228	-0.07511203	-0.06379301	-0.09664706	-0.099763535	-0.038485877	-0.08812974	0.040411	-0.04485977
-0.02911941	-0.04079624	-0.16655335	-0.055727214	0.15666753	0.04924638	0.1235555	0.02760971	0.16466391	-0.11017961	0.13093156	0.1704868	-0.14897126	0.21228616	-0.100188784	0.19784793
-0.2454822	-0.44238535	-0.27682382	0.37886134	-0.121598974	-0.3521853	-0.1166196	-0.34922153	-0.35065377	-0.4845149	0.04542553	-0.20157614	-0.34282115	-0.26983073	0.4258531	-0.09696218
-0.029315483	-0.18843158	-0.13206236	0.1341922	-0.44944692	-0.15724276	0.12909289	-0.062441606	-0.12523845	0.1315557	0.16824974	-0.08325247	-0.16486576	-0.20831817	0.14048135	-0.14467172
